{"learner":{"attributes":{"scikit_learn":"{\"_estimator_type\": \"classifier\"}"},"feature_names":["Recency","Frequency","Avg_Monthly_Spend","Tenure","AOV","Velocity_Recent","Velocity_Drift","Return_Count"],"feature_types":["int","int","float","int","float","float","float","float"],"gradient_booster":{"model":{"cats":{"enc":[],"feature_segments":[],"sorted_idx":[]},"gbtree_model_param":{"num_parallel_tree":"1","num_trees":"300"},"iteration_indptr":[0,3,6,9,12,15,18,21,24,27,30,33,36,39,42,45,48,51,54,57,60,63,66,69,72,75,78,81,84,87,90,93,96,99,102,105,108,111,114,117,120,123,126,129,132,135,138,141,144,147,150,153,156,159,162,165,168,171,174,177,180,183,186,189,192,195,198,201,204,207,210,213,216,219,222,225,228,231,234,237,240,243,246,249,252,255,258,261,264,267,270,273,276,279,282,285,288,291,294,297,300],"tree_info":[0,1,2,0,1,2,0,1,2,0,1,2,0,1,2,0,1,2,0,1,2,0,1,2,0,1,2,0,1,2,0,1,2,0,1,2,0,1,2,0,1,2,0,1,2,0,1,2,0,1,2,0,1,2,0,1,2,0,1,2,0,1,2,0,1,2,0,1,2,0,1,2,0,1,2,0,1,2,0,1,2,0,1,2,0,1,2,0,1,2,0,1,2,0,1,2,0,1,2,0,1,2,0,1,2,0,1,2,0,1,2,0,1,2,0,1,2,0,1,2,0,1,2,0,1,2,0,1,2,0,1,2,0,1,2,0,1,2,0,1,2,0,1,2,0,1,2,0,1,2,0,1,2,0,1,2,0,1,2,0,1,2,0,1,2,0,1,2,0,1,2,0,1,2,0,1,2,0,1,2,0,1,2,0,1,2,0,1,2,0,1,2,0,1,2,0,1,2,0,1,2,0,1,2,0,1,2,0,1,2,0,1,2,0,1,2,0,1,2,0,1,2,0,1,2,0,1,2,0,1,2,0,1,2,0,1,2,0,1,2,0,1,2,0,1,2,0,1,2,0,1,2,0,1,2,0,1,2,0,1,2,0,1,2,0,1,2,0,1,2,0,1,2,0,1,2,0,1,2,0,1,2,0,1,2,0,1,2,0,1,2,0,1,2,0,1,2,0,1,2],"trees":[{"base_weights":[4.0268563E-7,8.9453334E-1,-6.9549483E-1,-6.5260875E-1,1.0971628E0,-7.6711124E-1,4.1886157E-1,2.2328621E-1,-7.794145E-1,1.1776682E0,3.6149713E-1,-1.3814266E-1,-8.1273174E-1,8.834483E-1,-4.7935283E-1,-6.714472E-2,9.954466E-2,-4.278535E-2,-8.283347E-2,5.508226E-2,1.2167944E-1,1.00840844E-1,-2.0917485E-2,-7.1267E-2,7.091396E-2,-8.435779E-2,-6.436237E-2,-6.8713844E-2,1.176598E-1,-7.8052916E-2,6.538919E-2],"categories":[],"categories_nodes":[],"categories_segments":[],"categories_sizes":[],"default_left":[0,0,0,0,0,0,0,0,0,0,0,0,0,0,0,0,0,0,0,0,0,0,0,0,0,0,0,0,0,0,0],"id":0,"left_children":[1,3,5,7,9,11,13,15,17,19,21,23,25,27,29,-1,-1,-1,-1,-1,-1,-1,-1,-1,-1,-1,-1,-1,-1,-1,-1],"loss_changes":[8.1173596E2,1.7963086E2,5.8901764E1,7.584177E0,2.94823E1,1.9688232E1,1.9190372E1,7.0345592E0,6.5174484E-1,1.0482727E1,1.9132622E1,2.3808651E1,2.8121643E0,1.4617659E1,5.9643173E0,0E0,0E0,0E0,0E0,0E0,0E0,0E0,0E0,0E0,0E0,0E0,0E0,0E0,0E0,0E0,0E0],"parents":[2147483647,0,0,1,1,2,2,3,3,4,4,5,5,6,6,7,7,8,8,9,9,10,10,11,11,12,12,13,13,14,14],"right_children":[2,4,6,8,10,12,14,16,18,20,22,24,26,28,30,-1,-1,-1,-1,-1,-1,-1,-1,-1,-1,-1,-1,-1,-1,-1,-1],"split_conditions":[9.5564705E1,5.2E1,1.49E2,3.986727E1,3E0,1.0628855E2,1.84478E2,2.8E1,2E0,7.2E1,6.552292E1,8.7E1,8.3E1,-3.3581164E-1,-1.6666667E-1,-6.714472E-2,9.954466E-2,-4.278535E-2,-8.283347E-2,5.508226E-2,1.2167944E-1,1.00840844E-1,-2.0917485E-2,-7.1267E-2,7.091396E-2,-8.435779E-2,-6.436237E-2,-6.8713844E-2,1.176598E-1,-7.8052916E-2,6.538919E-2],"split_indices":[2,0,0,2,1,2,2,0,1,0,2,0,0,6,6,0,0,0,0,0,0,0,0,0,0,0,0,0,0,0,0],"split_type":[0,0,0,0,0,0,0,0,0,0,0,0,0,0,0,0,0,0,0,0,0,0,0,0,0,0,0,0,0,0,0],"sum_hessian":[1.3027408E3,5.697075E2,7.330334E2,6.57169E1,5.0399063E2,6.8906104E2,4.3972336E1,8.214613E0,5.750229E1,4.5373654E2,5.02541E1,4.6871613E1,6.421894E2,2.899275E1,1.4979588E1,3.8657E0,4.3489127E0,8.214613E0,4.9287674E1,2.7543112E1,4.2619342E2,2.31942E1,2.70599E1,2.8026325E1,1.8845287E1,5.3974835E2,1.0244105E2,4.3489127E0,2.4643837E1,1.2080313E1,2.899275E0],"tree_param":{"num_deleted":"0","num_feature":"8","num_nodes":"31","size_leaf_vector":"1"}},{"base_weights":[5.718942E-7,-7.153961E-1,3.7527934E-1,9.5193875E-1,-8.2254136E-1,6.365709E-1,-7.443782E-1,1.0153189E0,-1.1290031E-2,-2.9815918E-1,-8.5429406E-1,8.202672E-1,-9.250348E-2,-8.206026E-1,4.7629187E-1,1.11873485E-1,4.647969E-2,-7.481177E-2,3.0814713E-2,-8.616877E-2,2.5223121E-2,9.352965E-2,2.1519488E-2,-5.775723E-2,6.817322E-2,4.3811657E-2,-8.395477E-2,7.9255834E-2,-5.7662673E-2],"categories":[],"categories_nodes":[],"categories_segments":[],"categories_sizes":[],"default_left":[0,0,0,0,0,0,0,0,0,0,0,0,0,0,0,0,0,0,0,0,0,0,0,0,0,0,0,0,0],"id":1,"left_children":[1,3,5,7,9,11,13,15,-1,17,19,21,23,25,27,-1,-1,-1,-1,-1,-1,-1,-1,-1,-1,-1,-1,-1,-1],"loss_changes":[3.5455164E2,8.195999E1,2.5389359E2,1.9976368E0,6.8633423E0,9.420914E1,1.5683746E1,9.849415E-1,0E0,7.3084536E0,3.5107422E0,3.8880524E1,5.385467E1,4.0656357E0,3.884595E0,0E0,0E0,0E0,0E0,0E0,0E0,0E0,0E0,0E0,0E0,0E0,0E0,0E0,0E0],"parents":[2147483647,0,0,1,1,2,2,3,3,4,4,5,5,6,6,7,7,9,9,10,10,11,11,12,12,13,13,14,14],"right_children":[2,4,6,8,10,12,14,16,-1,18,20,22,24,26,28,-1,-1,-1,-1,-1,-1,-1,-1,-1,-1,-1,-1,-1,-1],"split_conditions":[7.1869125E1,3.8E1,7E0,6E0,6.7E1,1.14E2,7.5E1,2.9E1,-1.1290031E-2,5.38375E1,5E0,5E0,1.315644E2,9.640769E1,2.83E2,1.11873485E-1,4.647969E-2,-7.481177E-2,3.0814713E-2,-8.616877E-2,2.5223121E-2,9.352965E-2,2.1519488E-2,-5.775723E-2,6.817322E-2,4.3811657E-2,-8.395477E-2,7.9255834E-2,-5.7662673E-2],"split_indices":[2,0,1,1,0,0,0,0,0,2,1,1,2,2,3,0,0,0,0,0,0,0,0,0,0,0,0,0,0],"split_type":[0,0,0,0,0,0,0,0,0,0,0,0,0,0,0,0,0,0,0,0,0,0,0,0,0,0,0,0,0],"sum_hessian":[1.3186222E3,4.5339865E2,8.652235E2,2.6900675E1,4.2649796E2,7.0186304E2,1.6336046E2,2.5433365E1,1.4673095E0,2.4944262E1,4.015537E2,5.605122E2,1.4135081E2,1.540675E2,9.29296E0,2.0542334E1,4.8910317E0,1.4183991E1,1.076027E1,3.991082E2,2.4455159E0,4.7051724E2,8.999498E1,8.706036E1,5.429045E1,1.9564127E0,1.5211108E2,7.3365474E0,1.9564127E0],"tree_param":{"num_deleted":"0","num_feature":"8","num_nodes":"29","size_leaf_vector":"1"}},{"base_weights":[-1.8254291E-6,-4.556217E-1,2.5006616E0,6.0302854E-1,-5.548093E-1,2.7280147E0,1.968439E-2,-7.604756E-2,2.217913E0,-5.943734E-1,1.8052322E-1,2.9602543E-1,1.887629E0,-5.2586418E-2,1.2943872E0,9.1809615E-2,-4.4289734E-2,-5.3877067E-3,2.5297529E-1,-5.96189E-2,7.2605084E-3,1.5229516E-1,-2.3959475E-2,5.0958823E-3,2.4571748E-1,1.6073924E-2,1.7528296E-1],"categories":[],"categories_nodes":[],"categories_segments":[],"categories_sizes":[],"default_left":[0,0,0,0,0,0,0,0,0,0,0,0,0,0,0,0,0,0,0,0,0,0,0,0,0,0,0],"id":2,"left_children":[1,3,5,7,9,11,13,15,17,19,21,-1,23,-1,25,-1,-1,-1,-1,-1,-1,-1,-1,-1,-1,-1,-1],"loss_changes":[8.5045557E2,6.663443E1,6.4835754E1,6.0010204E1,1.6917969E1,1.4978516E1,8.096854E0,1.4769158E1,1.1603722E1,7.075653E-1,1.7436201E1,0E0,2.662828E1,0E0,1.5295224E0,0E0,0E0,0E0,0E0,0E0,0E0,0E0,0E0,0E0,0E0,0E0,0E0],"parents":[2147483647,0,0,1,1,2,2,3,3,4,4,5,5,6,6,7,7,8,8,9,9,10,10,12,12,14,14],"right_children":[2,4,6,8,10,12,14,16,18,20,22,-1,24,-1,26,-1,-1,-1,-1,-1,-1,-1,-1,-1,-1,-1,-1],"split_conditions":[6E0,1.5E1,7.5E1,4E0,5E0,3.2E1,8E0,4E0,9.814459E1,2.4456843E3,2.5E1,2.9602543E-1,7E0,-5.2586418E-2,2.899909E2,9.1809615E-2,-4.4289734E-2,-5.3877067E-3,2.5297529E-1,-5.96189E-2,7.2605084E-3,1.5229516E-1,-2.3959475E-2,5.0958823E-3,2.4571748E-1,1.6073924E-2,1.7528296E-1],"split_indices":[1,0,0,1,1,0,1,0,2,2,0,0,1,0,2,0,0,0,0,0,0,0,0,0,0,0,0],"split_type":[0,0,0,0,0,0,0,0,0,0,0,0,0,0,0,0,0,0,0,0,0,0,0,0,0,0,0],"sum_hessian":[7.44438E2,6.3039764E2,1.1404039E2,5.356861E1,5.7682904E2,1.0437595E2,9.66444E0,3.8381634E1,1.5186977E1,5.475596E2,2.9269447E1,7.980066E1,2.457529E1,7.1792984E0,2.4851418E0,9.940567E0,2.8441067E1,1.932888E0,1.3254089E1,5.4617896E2,1.3806343E0,6.350918E0,2.291853E1,6.074791E0,1.85005E1,1.1045074E0,1.3806343E0],"tree_param":{"num_deleted":"0","num_feature":"8","num_nodes":"27","size_leaf_vector":"1"}},{"base_weights":[1.4092772E-4,7.89481E-1,-6.7171234E-1,-3.739226E-1,1.0201476E0,-7.270308E-1,5.7937086E-1,6.2427855E-1,-5.6709135E-1,1.0819479E0,3.8764575E-1,-7.9490954E-1,-4.201521E-1,-6.808409E-2,8.6855656E-1,-6.325758E-2,1.0408874E-1,2.2047477E-2,-7.678166E-2,6.742897E-2,1.09312676E-1,1.0103072E-1,-1.4580666E-2,-4.258676E-2,-7.966772E-2,2.8407285E-2,-7.385676E-2,1.0453258E-1,-5.7573516E-2],"categories":[],"categories_nodes":[],"categories_segments":[],"categories_sizes":[],"default_left":[0,0,0,0,0,0,0,0,0,0,0,0,0,0,0,0,0,0,0,0,0,0,0,0,0,0,0,0,0],"id":3,"left_children":[1,3,5,7,9,11,13,15,17,19,21,23,25,-1,27,-1,-1,-1,-1,-1,-1,-1,-1,-1,-1,-1,-1,-1,-1],"loss_changes":[6.878965E2,1.604354E2,4.891626E1,1.95237E1,1.9046814E1,1.3653442E1,1.1607375E1,9.348091E0,1.3420137E1,1.3278809E0,1.538876E1,1.8737793E-2,2.7958052E1,0E0,6.99094E0,0E0,0E0,0E0,0E0,0E0,0E0,0E0,0E0,0E0,0E0,0E0,0E0,0E0,0E0],"parents":[2147483647,0,0,1,1,2,2,3,3,4,4,5,5,6,6,7,7,8,8,9,9,10,10,11,11,12,12,14,14],"right_children":[2,4,6,8,10,12,14,16,18,20,22,24,26,-1,28,-1,-1,-1,-1,-1,-1,-1,-1,-1,-1,-1,-1,-1,-1],"split_conditions":[9.814459E1,6.7E1,1.7E2,4.0435795E1,3E0,8.6E1,-3.2374102E-1,2.8E1,2E0,7.6E1,6.552292E1,9.920702E1,2E0,-6.808409E-2,2.661E2,-6.325758E-2,1.0408874E-1,2.2047477E-2,-7.678166E-2,6.742897E-2,1.09312676E-1,1.0103072E-1,-1.4580666E-2,-4.258676E-2,-7.966772E-2,2.8407285E-2,-7.385676E-2,1.0453258E-1,-5.7573516E-2],"split_indices":[2,0,0,2,1,0,6,0,1,0,2,2,1,0,2,0,0,0,0,0,0,0,0,0,0,0,0,0,0],"split_type":[0,0,0,0,0,0,0,0,0,0,0,0,0,0,0,0,0,0,0,0,0,0,0,0,0,0,0,0,0],"sum_hessian":[1.2951329E3,5.954186E2,6.9971436E2,9.841681E1,4.970018E2,6.704867E2,2.9227661E1,1.5595445E1,8.282136E1,4.5211597E2,4.4885834E1,5.477411E2,1.22745605E2,5.202388E0,2.4025272E1,3.7534337E0,1.1842011E1,1.680131E1,6.602005E1,1.3703639E1,4.3841232E2,2.0298695E1,2.458714E1,3.7642615E0,5.439768E2,3.8252403E1,8.44932E1,2.1651543E1,2.3737314E0],"tree_param":{"num_deleted":"0","num_feature":"8","num_nodes":"29","size_leaf_vector":"1"}},{"base_weights":[8.816868E-4,-6.672031E-1,3.4095868E-1,8.669802E-1,-7.700861E-1,5.778759E-1,-7.049748E-1,9.2307085E-1,-9.941618E-3,-2.788696E-1,-8.004321E-1,7.3790073E-1,-9.943488E-2,-7.7806765E-1,4.316358E-1,1.016886E-1,4.2190984E-2,-7.1149684E-2,2.9171962E-2,-8.0770865E-2,2.5332898E-2,8.076033E-2,-1.0251601E-2,-5.5165406E-2,6.0306787E-2,4.329377E-2,-7.96795E-2,7.267893E-2,-5.6285568E-2],"categories":[],"categories_nodes":[],"categories_segments":[],"categories_sizes":[],"default_left":[0,0,0,0,0,0,0,0,0,0,0,0,0,0,0,0,0,0,0,0,0,0,0,0,0,0,0,0,0],"id":4,"left_children":[1,3,5,7,9,11,13,15,-1,17,19,21,23,25,27,-1,-1,-1,-1,-1,-1,-1,-1,-1,-1,-1,-1,-1,-1],"loss_changes":[2.9847714E2,7.061488E1,2.1613385E2,1.6269054E0,5.9753113E0,7.706474E1,1.3730293E1,8.340225E-1,0E0,6.5587635E0,3.203476E0,3.3748596E1,4.373988E1,3.7885666E0,3.457326E0,0E0,0E0,0E0,0E0,0E0,0E0,0E0,0E0,0E0,0E0,0E0,0E0,0E0,0E0],"parents":[2147483647,0,0,1,1,2,2,3,3,4,4,5,5,6,6,7,7,9,9,10,10,11,11,12,12,13,13,14,14],"right_children":[2,4,6,8,10,12,14,16,-1,18,20,22,24,26,28,-1,-1,-1,-1,-1,-1,-1,-1,-1,-1,-1,-1,-1,-1],"split_conditions":[7.1869125E1,3.8E1,7E0,6E0,6.7E1,1.15E2,7.5E1,2.9E1,-9.941618E-3,5.38375E1,5E0,1E0,1.315644E2,9.640769E1,2.83E2,1.016886E-1,4.2190984E-2,-7.1149684E-2,2.9171962E-2,-8.0770865E-2,2.5332898E-2,8.076033E-2,-1.0251601E-2,-5.5165406E-2,6.0306787E-2,4.329377E-2,-7.96795E-2,7.267893E-2,-5.6285568E-2],"split_indices":[2,0,1,1,0,0,0,0,0,2,1,5,2,2,3,0,0,0,0,0,0,0,0,0,0,0,0,0,0],"split_type":[0,0,0,0,0,0,0,0,0,0,0,0,0,0,0,0,0,0,0,0,0,0,0,0,0,0,0,0,0],"sum_hessian":[1.311717E3,4.4214893E2,8.695681E2,2.7320518E1,4.148284E2,7.093409E2,1.6022722E2,2.5864168E1,1.4563513E0,2.4728756E1,3.9009964E2,5.73705E2,1.3563586E2,1.5084235E2,9.384878E0,2.0919138E1,4.9450297E0,1.3924267E1,1.0804489E1,3.8765625E2,2.4433863E0,5.2980316E2,4.390183E1,8.2647964E1,5.29879E1,1.9603145E0,1.4888203E2,7.4445944E0,1.9402839E0],"tree_param":{"num_deleted":"0","num_feature":"8","num_nodes":"29","size_leaf_vector":"1"}},{"base_weights":[-1.8006075E-3,-4.4397274E-1,1.913649E0,5.574703E-1,-5.4579735E-1,2.053687E0,2.066676E-2,-6.7116834E-2,1.8361759E0,-5.866975E-1,1.5865183E-1,2.1792124E-1,1.4271463E0,-5.1936816E-2,1.1730788E0,8.399342E-2,-4.316865E-2,-4.945333E-3,2.0563002E-1,-5.885933E-2,7.386739E-3,8.963433E-2,-5.042982E-2,-3.5612986E-3,1.8358213E-1,1.5294756E-2,1.5578227E-1],"categories":[],"categories_nodes":[],"categories_segments":[],"categories_sizes":[],"default_left":[0,0,0,0,0,0,0,0,0,0,0,0,0,0,0,0,0,0,0,0,0,0,0,0,0,0,0],"id":5,"left_children":[1,3,5,7,9,11,13,15,17,19,21,-1,23,-1,25,-1,-1,-1,-1,-1,-1,-1,-1,-1,-1,-1,-1],"loss_changes":[6.312019E2,6.2046097E1,3.700998E1,4.514927E1,1.5942734E1,7.124695E0,7.2297435E0,1.3206599E1,7.795456E0,6.948242E-1,1.5599671E1,0E0,1.4781933E1,0E0,1.214457E0,0E0,0E0,0E0,0E0,0E0,0E0,0E0,0E0,0E0,0E0,0E0,0E0],"parents":[2147483647,0,0,1,1,2,2,3,3,4,4,5,5,6,6,7,7,8,8,9,9,10,10,12,12,14,14],"right_children":[2,4,6,8,10,12,14,16,18,20,22,-1,24,-1,26,-1,-1,-1,-1,-1,-1,-1,-1,-1,-1,-1,-1],"split_conditions":[6E0,1.5E1,7.5E1,4E0,5E0,3.6E1,8E0,4E0,9.814459E1,2.4456843E3,3.5E1,2.1792124E-1,7E0,-5.1936816E-2,2.899909E2,8.399342E-2,-4.316865E-2,-4.945333E-3,2.0563002E-1,-5.885933E-2,7.386739E-3,8.963433E-2,-5.042982E-2,-3.5612986E-3,1.8358213E-1,1.5294756E-2,1.5578227E-1],"split_indices":[1,0,0,1,1,0,1,0,2,2,0,0,1,0,2,0,0,0,0,0,0,0,0,0,0,0,0],"split_type":[0,0,0,0,0,0,0,0,0,0,0,0,0,0,0,0,0,0,0,0,0,0,0,0,0,0,0],"sum_hessian":[7.432542E2,6.0448096E2,1.3877324E2,5.5376762E1,5.491042E2,1.2913524E2,9.638003E0,3.7840824E1,1.753594E1,5.1913074E2,2.9973455E1,1.055171E2,2.361814E1,6.9366984E0,2.7013044E0,1.047502E1,2.7365803E1,1.9141636E0,1.5621776E1,5.177538E2,1.3769684E0,1.402037E1,1.5953087E1,5.356963E0,1.8261177E1,1.1225209E0,1.5787834E0],"tree_param":{"num_deleted":"0","num_feature":"8","num_nodes":"27","size_leaf_vector":"1"}},{"base_weights":[-1.5549603E-4,7.244059E-1,-6.375848E-1,-5.960746E-1,8.928047E-1,-7.029718E-1,3.4534392E-1,2.0751505E-1,-7.079147E-1,9.609296E-1,2.6310763E-1,-9.642198E-2,-7.351908E-1,-7.1137965E-2,6.7399126E-1,-5.9820086E-2,8.473217E-2,-3.8008068E-2,-7.530617E-2,4.496581E-2,9.937651E-2,8.2575105E-2,-2.259234E-2,7.817741E-2,-5.383557E-2,-7.641768E-2,-5.7969477E-2,9.358662E-2,-5.2765574E-2],"categories":[],"categories_nodes":[],"categories_segments":[],"categories_sizes":[],"default_left":[0,0,0,0,0,0,0,0,0,0,0,0,0,0,0,0,0,0,0,0,0,0,0,0,0,0,0,0,0],"id":6,"left_children":[1,3,5,7,9,11,13,15,17,19,21,23,25,-1,27,-1,-1,-1,-1,-1,-1,-1,-1,-1,-1,-1,-1,-1,-1],"loss_changes":[5.898248E2,1.3343823E2,4.390738E1,6.2763405E0,2.2503937E1,1.2384308E1,1.5428948E1,5.2007985E0,6.032257E-1,7.58313E0,1.4815122E1,1.3343941E1,2.2840576E0,0E0,1.0987793E1,0E0,0E0,0E0,0E0,0E0,0E0,0E0,0E0,0E0,0E0,0E0,0E0,0E0,0E0],"parents":[2147483647,0,0,1,1,2,2,3,3,4,4,5,5,6,6,7,7,8,8,9,9,10,10,11,11,12,12,14,14],"right_children":[2,4,6,8,10,12,14,16,18,20,22,24,26,-1,28,-1,-1,-1,-1,-1,-1,-1,-1,-1,-1,-1,-1,-1,-1],"split_conditions":[9.814459E1,5.2E1,1.49E2,3.986727E1,3E0,1.0628855E2,-3.2374102E-1,2.8E1,8.82E1,7.2E1,6.552292E1,2E0,8.3E1,-7.1137965E-2,2.2760243E2,-5.9820086E-2,8.473217E-2,-3.8008068E-2,-7.530617E-2,4.496581E-2,9.937651E-2,8.2575105E-2,-2.259234E-2,7.817741E-2,-5.383557E-2,-7.641768E-2,-5.7969477E-2,9.358662E-2,-5.2765574E-2],"split_indices":[2,0,0,2,1,2,6,0,4,0,2,1,0,0,2,0,0,0,0,0,0,0,0,0,0,0,0,0,0],"split_type":[0,0,0,0,0,0,0,0,0,0,0,0,0,0,0,0,0,0,0,0,0,0,0,0,0,0,0,0,0],"sum_hessian":[1.2750732E3,5.9668695E2,6.783863E2,6.7200676E1,5.2948627E2,6.3634015E2,4.2046185E1,8.105545E0,5.909513E1,4.7732053E2,5.216577E1,3.2297916E1,6.0404224E2,9.698221E0,3.234796E1,3.6163993E0,4.4891453E0,8.293163E0,5.0801968E1,2.9691872E1,4.4762866E2,2.3937029E1,2.8228745E1,1.0554794E1,2.1743122E1,5.0583524E2,9.8206985E1,2.674139E1,5.6065726E0],"tree_param":{"num_deleted":"0","num_feature":"8","num_nodes":"29","size_leaf_vector":"1"}},{"base_weights":[1.5514352E-3,-6.2760216E-1,3.1217444E-1,8.018324E-1,-7.272717E-1,5.288604E-1,-6.705357E-1,8.525834E-1,-8.598017E-3,-7.6069504E-1,-2.974967E-1,6.4857066E-1,-2.3348437E-1,-7.408109E-1,3.914062E-1,9.4010055E-2,3.872237E-2,-4.7369666E-2,-7.689418E-2,4.6991967E-2,-5.1632166E-2,7.065303E-2,-1.0465079E-2,-6.477065E-2,4.806143E-2,4.2911828E-2,-7.595045E-2,6.686398E-2,-5.4875966E-2],"categories":[],"categories_nodes":[],"categories_segments":[],"categories_sizes":[],"default_left":[0,0,0,0,0,0,0,0,0,0,0,0,0,0,0,0,0,0,0,0,0,0,0,0,0,0,0,0,0],"id":7,"left_children":[1,3,5,7,9,11,13,15,-1,17,19,21,23,25,27,-1,-1,-1,-1,-1,-1,-1,-1,-1,-1,-1,-1,-1,-1],"loss_changes":[2.5327039E2,6.161136E1,1.8510297E2,1.3527756E0,5.5332947E0,6.507637E1,1.20204315E1,7.336712E-1,0E0,5.1474E-1,5.37701E0,2.692862E1,2.908863E1,3.557785E0,3.0803967E0,0E0,0E0,0E0,0E0,0E0,0E0,0E0,0E0,0E0,0E0,0E0,0E0,0E0,0E0],"parents":[2147483647,0,0,1,1,2,2,3,3,4,4,5,5,6,6,7,7,9,9,10,10,11,11,12,12,13,13,14,14],"right_children":[2,4,6,8,10,12,14,16,-1,18,20,22,24,26,28,-1,-1,-1,-1,-1,-1,-1,-1,-1,-1,-1,-1,-1,-1],"split_conditions":[7.1869125E1,3.8E1,7E0,6E0,3E0,1.28E2,7.5E1,2.9E1,-8.598017E-3,5.9E1,6.6E1,1E0,1.3706842E2,9.640769E1,2.83E2,9.4010055E-2,3.872237E-2,-4.7369666E-2,-7.689418E-2,4.6991967E-2,-5.1632166E-2,7.065303E-2,-1.0465079E-2,-6.477065E-2,4.806143E-2,4.2911828E-2,-7.595045E-2,6.686398E-2,-5.4875966E-2],"split_indices":[2,0,1,1,1,0,0,0,0,0,0,5,2,2,3,0,0,0,0,0,0,0,0,0,0,0,0,0,0],"split_type":[0,0,0,0,0,0,0,0,0,0,0,0,0,0,0,0,0,0,0,0,0,0,0,0,0,0,0,0,0],"sum_hessian":[1.293965E3,4.2735507E2,8.666098E2,2.7396513E1,3.9995856E2,7.104243E2,1.5618555E2,2.5952635E1,1.443878E0,3.70384E2,2.9574553E1,6.141363E2,9.628797E1,1.4677495E2,9.410595E0,2.0985811E1,4.9668236E0,1.197782E1,3.584062E2,6.3073363E0,2.3267216E1,5.7031323E2,4.3823063E1,6.0998177E1,3.52898E1,1.9630525E0,1.4481189E2,7.490596E0,1.9199994E0],"tree_param":{"num_deleted":"0","num_feature":"8","num_nodes":"29","size_leaf_vector":"1"}},{"base_weights":[-2.457986E-3,-5.043542E-1,1.3716722E0,3.71222E-1,-5.719757E-1,1.682473E0,4.7435254E-1,-3.2773736E-1,1.0986452E0,-1.8455645E-1,-5.7950246E-1,3.7229967E-1,1.7222406E0,-2.239975E-1,1.5929924E0,9.747688E-2,-5.625719E-2,-7.671845E-3,1.8664367E-1,-4.335725E-2,1.07583635E-1,-5.81488E-2,7.488308E-3,1.3415273E-1,-4.5452077E-2,1.3845818E-1,1.8097623E-1,-3.3256482E-2,1.345316E-1,-3.498472E-2,1.7248495E-1],"categories":[],"categories_nodes":[],"categories_segments":[],"categories_sizes":[],"default_left":[0,0,0,0,0,0,0,0,0,0,0,0,0,0,0,0,0,0,0,0,0,0,0,0,0,0,0,0,0,0,0],"id":8,"left_children":[1,3,5,7,9,11,13,15,17,19,21,23,25,27,29,-1,-1,-1,-1,-1,-1,-1,-1,-1,-1,-1,-1,-1,-1,-1,-1],"loss_changes":[5.0873114E2,3.220215E1,5.4238495E1,2.0363302E1,1.3567505E0,6.975281E0,4.1105225E1,6.920942E0,1.7748272E1,3.9293675E0,6.826935E-1,5.0831556E0,1.678894E0,6.0681176E0,5.7708244E0,0E0,0E0,0E0,0E0,0E0,0E0,0E0,0E0,0E0,0E0,0E0,0E0,0E0,0E0,0E0,0E0],"parents":[2147483647,0,0,1,1,2,2,3,3,4,4,5,5,6,6,7,7,8,8,9,9,10,10,11,11,12,12,13,13,14,14],"right_children":[2,4,6,8,10,12,14,16,18,20,22,24,26,28,30,-1,-1,-1,-1,-1,-1,-1,-1,-1,-1,-1,-1,-1,-1,-1,-1],"split_conditions":[5E0,1E1,3.6E1,3E0,1.5E1,1.0016725E2,8E0,-1.0769231E0,1.5122614E2,1E0,2.4456843E3,1.1E1,2.329478E2,5.4191327E2,1.480451E2,9.747688E-2,-5.625719E-2,-7.671845E-3,1.8664367E-1,-4.335725E-2,1.07583635E-1,-5.81488E-2,7.488308E-3,1.3415273E-1,-4.5452077E-2,1.3845818E-1,1.8097623E-1,-3.3256482E-2,1.345316E-1,-3.498472E-2,1.7248495E-1],"split_indices":[1,0,0,1,0,2,1,6,2,5,2,0,2,2,2,0,0,0,0,0,0,0,0,0,0,0,0,0,0,0,0],"split_type":[0,0,0,0,0,0,0,0,0,0,0,0,0,0,0,0,0,0,0,0,0,0,0,0,0,0,0,0,0,0,0],"sum_hessian":[7.356405E2,5.392971E2,1.9634338E2,3.834243E1,5.0095465E2,1.4518225E2,5.1161144E1,1.9833992E1,1.850844E1,1.003338E1,4.9092126E2,4.582145E0,1.406001E2,3.1990019E1,1.9171127E1,2.5484085E0,1.7285583E1,7.668814E0,1.0839625E1,8.925891E0,1.107488E0,4.8954727E2,1.3740164E0,1.8228381E0,2.7593071E0,3.2404232E1,1.0819586E2,3.0657194E1,1.332825E0,1.1133473E0,1.805778E1],"tree_param":{"num_deleted":"0","num_feature":"8","num_nodes":"31","size_leaf_vector":"1"}},{"base_weights":[-7.302461E-4,6.7190045E-1,-6.0815895E-1,-5.686681E-1,8.257748E-1,-6.6117835E-1,5.1639134E-1,2.0504916E-1,-6.783942E-1,8.888915E-1,2.4316889E-1,-8.484961E-2,-6.965212E-1,-6.312371E-2,7.664994E-1,-5.6918986E-2,7.985803E-2,-3.561146E-2,-7.237073E-2,4.574823E-2,9.229398E-2,7.671108E-2,-2.1490753E-2,7.888774E-2,-5.082491E-2,-7.230133E-2,-4.10582E-2,9.191312E-2,-5.3451348E-2],"categories":[],"categories_nodes":[],"categories_segments":[],"categories_sizes":[],"default_left":[0,0,0,0,0,0,0,0,0,0,0,0,0,0,0,0,0,0,0,0,0,0,0,0,0,0,0,0,0],"id":9,"left_children":[1,3,5,7,9,11,13,15,17,19,21,23,25,-1,27,-1,-1,-1,-1,-1,-1,-1,-1,-1,-1,-1,-1,-1,-1],"loss_changes":[5.0975983E2,1.1348718E2,3.9430344E1,5.7358475E0,1.916748E1,1.2702576E1,9.117608E0,4.570063E0,5.888157E-1,6.558197E0,1.2861411E1,1.4214197E1,4.1738586E0,0E0,5.4852295E0,0E0,0E0,0E0,0E0,0E0,0E0,0E0,0E0,0E0,0E0,0E0,0E0,0E0,0E0],"parents":[2147483647,0,0,1,1,2,2,3,3,4,4,5,5,6,6,7,7,8,8,9,9,10,10,11,11,12,12,14,14],"right_children":[2,4,6,8,10,12,14,16,18,20,22,24,26,-1,28,-1,-1,-1,-1,-1,-1,-1,-1,-1,-1,-1,-1,-1,-1],"split_conditions":[9.814459E1,5.2E1,1.7E2,3.986727E1,3E0,1.074769E2,-3.2374102E-1,2.8E1,8.82E1,7.6E1,6.552292E1,2E0,1.13E2,-6.312371E-2,2.661E2,-5.6918986E-2,7.985803E-2,-3.561146E-2,-7.237073E-2,4.574823E-2,9.229398E-2,7.671108E-2,-2.1490753E-2,7.888774E-2,-5.082491E-2,-7.230133E-2,-4.10582E-2,9.191312E-2,-5.3451348E-2],"split_indices":[2,0,0,2,1,2,6,0,4,0,2,1,0,0,2,0,0,0,0,0,0,0,0,0,0,0,0,0,0],"split_type":[0,0,0,0,0,0,0,0,0,0,0,0,0,0,0,0,0,0,0,0,0,0,0,0,0,0,0,0,0],"sum_hessian":[1.2456521E3,5.91051E2,6.5460114E2,6.492398E1,5.26127E2,6.255216E2,2.9079544E1,7.955835E0,5.6968147E1,4.7422592E2,5.1901104E1,3.633961E1,5.89182E2,4.9307575E0,2.4148787E1,3.470157E0,4.4856777E0,8.114502E0,4.8853645E1,3.5745655E1,4.384803E2,2.3895315E1,2.8005789E1,1.1579977E1,2.4759634E1,5.378244E2,5.1357574E1,2.1875887E1,2.2729006E0],"tree_param":{"num_deleted":"0","num_feature":"8","num_nodes":"29","size_leaf_vector":"1"}},{"base_weights":[2.105E-3,-5.945776E-1,2.877807E-1,7.427505E-1,-6.9128186E-1,4.8731357E-1,-6.401815E-1,7.9023105E-1,-8.266596E-3,-7.245446E-1,-2.7439117E-1,5.7852995E-1,-3.6357683E-1,-7.087511E-1,3.6800757E-1,8.736464E-2,3.530399E-2,-7.269372E-2,-7.443291E-3,4.4893336E-2,-4.864091E-2,-3.0763948E-3,6.369326E-2,-6.198398E-2,6.069083E-2,3.9945304E-2,-7.271395E-2,6.289636E-2,-5.271567E-2],"categories":[],"categories_nodes":[],"categories_segments":[],"categories_sizes":[],"default_left":[0,0,0,0,0,0,0,0,0,0,0,0,0,0,0,0,0,0,0,0,0,0,0,0,0,0,0,0,0],"id":10,"left_children":[1,3,5,7,9,11,13,15,-1,17,19,21,23,25,27,-1,-1,-1,-1,-1,-1,-1,-1,-1,-1,-1,-1,-1,-1],"loss_changes":[2.1651152E2,5.3696976E1,1.5935144E2,1.1710663E0,5.126419E0,5.5122803E1,1.0799023E1,6.6797256E-1,0E0,4.9813843E-1,4.8169384E0,2.2771591E1,1.7565079E1,3.2060013E0,2.7529752E0,0E0,0E0,0E0,0E0,0E0,0E0,0E0,0E0,0E0,0E0,0E0,0E0,0E0,0E0],"parents":[2147483647,0,0,1,1,2,2,3,3,4,4,5,5,6,6,7,7,9,9,10,10,11,11,12,12,13,13,14,14],"right_children":[2,4,6,8,10,12,14,16,-1,18,20,22,24,26,28,-1,-1,-1,-1,-1,-1,-1,-1,-1,-1,-1,-1,-1,-1],"split_conditions":[7.1869125E1,3.8E1,7E0,6E0,3E0,1.49E2,7.5E1,2.9E1,-8.266596E-3,6.666667E-1,6.6E1,7E0,1.84478E2,9.640769E1,2.83E2,8.736464E-2,3.530399E-2,-7.269372E-2,-7.443291E-3,4.4893336E-2,-4.864091E-2,-3.0763948E-3,6.369326E-2,-6.198398E-2,6.069083E-2,3.9945304E-2,-7.271395E-2,6.289636E-2,-5.271567E-2],"split_indices":[2,0,1,1,1,0,0,0,0,5,0,0,2,2,3,0,0,0,0,0,0,0,0,0,0,0,0,0,0],"split_type":[0,0,0,0,0,0,0,0,0,0,0,0,0,0,0,0,0,0,0,0,0,0,0,0,0,0,0,0,0],"sum_hessian":[1.2681732E3,4.1023853E2,8.579347E2,2.7213993E1,3.8302454E2,7.0649677E2,1.5143793E2,2.5774017E1,1.4399744E0,3.5403864E2,2.8985912E1,6.3838165E2,6.8115135E1,1.4207224E2,9.365703E0,2.080596E1,4.968058E0,3.526227E2,1.4159241E0,6.317063E0,2.266885E1,5.5879883E1,5.825018E2,5.4171978E1,1.3943155E1,1.9806757E0,1.4009155E2,7.481958E0,1.8837453E0],"tree_param":{"num_deleted":"0","num_feature":"8","num_nodes":"29","size_leaf_vector":"1"}},{"base_weights":[-2.4326406E-3,-4.9468595E-1,1.1837107E0,3.5307887E-1,-5.648202E-1,1.4301711E0,4.255447E-1,-3.143894E-1,9.874964E-1,-1.7296386E-1,-5.726877E-1,3.5847673E-1,1.4596847E0,-2.1723247E-1,1.3466179E0,9.0768844E-2,-5.5481713E-2,-6.9543137E-3,1.6065598E-1,-4.227234E-2,9.978092E-2,-5.7477634E-2,7.7497098E-3,1.2275179E-1,-4.447084E-2,1.5164113E-1,1.0990035E-1,-4.879372E-2,4.3163735E-2,7.059131E-3,1.5117027E-1],"categories":[],"categories_nodes":[],"categories_segments":[],"categories_sizes":[],"default_left":[0,0,0,0,0,0,0,0,0,0,0,0,0,0,0,0,0,0,0,0,0,0,0,0,0,0,0,0,0,0,0],"id":11,"left_children":[1,3,5,7,9,11,13,15,17,19,21,23,25,27,29,-1,-1,-1,-1,-1,-1,-1,-1,-1,-1,-1,-1,-1,-1,-1,-1],"loss_changes":[4.2331836E2,3.0663353E1,3.9124084E1,1.714862E1,1.3610382E0,4.5389404E0,3.201936E1,6.4199076E0,1.3610275E1,3.566507E0,6.744385E-1,4.465147E0,1.5136108E0,5.90588E0,4.562401E0,0E0,0E0,0E0,0E0,0E0,0E0,0E0,0E0,0E0,0E0,0E0,0E0,0E0,0E0,0E0,0E0],"parents":[2147483647,0,0,1,1,2,2,3,3,4,4,5,5,6,6,7,7,8,8,9,9,10,10,11,11,12,12,13,13,14,14],"right_children":[2,4,6,8,10,12,14,16,18,20,22,24,26,28,30,-1,-1,-1,-1,-1,-1,-1,-1,-1,-1,-1,-1,-1,-1,-1,-1],"split_conditions":[5E0,1E1,3.6E1,3E0,1.5E1,1.0016725E2,8E0,-1.0769231E0,1.5122614E2,1E0,2.4456843E3,1.1E1,2.5E1,3.0749E2,1.84478E2,9.0768844E-2,-5.5481713E-2,-6.9543137E-3,1.6065598E-1,-4.227234E-2,9.978092E-2,-5.7477634E-2,7.7497098E-3,1.2275179E-1,-4.447084E-2,1.5164113E-1,1.0990035E-1,-4.879372E-2,4.3163735E-2,7.059131E-3,1.5117027E-1],"split_indices":[1,0,0,1,0,2,1,6,2,5,2,0,0,2,2,0,0,0,0,0,0,0,0,0,0,0,0,0,0,0,0],"split_type":[0,0,0,0,0,0,0,0,0,0,0,0,0,0,0,0,0,0,0,0,0,0,0,0,0,0,0,0,0,0,0],"sum_hessian":[7.230025E2,5.1136664E2,2.1163585E2,3.8763897E1,4.7260275E2,1.5904729E2,5.258856E1,1.9135721E1,1.9628176E1,9.754389E0,4.6284836E2,4.614978E0,1.5443231E2,3.1423565E1,2.1164995E1,2.6895604E0,1.644616E1,7.577461E0,1.2050715E1,8.56596E0,1.1884291E0,4.614819E2,1.3664593E0,1.9628617E0,2.652116E0,1.3067583E2,2.375649E1,2.2348091E1,9.075474E0,2.5880663E0,1.8576927E1],"tree_param":{"num_deleted":"0","num_feature":"8","num_nodes":"31","size_leaf_vector":"1"}},{"base_weights":[-1.4181825E-3,6.2928265E-1,-5.826215E-1,-3.1748477E-1,8.0708337E-1,-6.4505595E-1,3.0118108E-1,5.391627E-1,-4.930488E-1,8.359136E-1,-5.187913E-2,-5.6592196E-2,-6.7796326E-1,-6.7719705E-2,5.9662724E-1,-5.433699E-2,8.5926175E-2,2.281779E-2,-6.918584E-2,8.560032E-2,5.0468307E-2,6.506135E-2,-5.4765124E-2,-5.8761902E-2,5.9964467E-2,-5.2714795E-2,-7.12105E-2,8.23883E-2,-4.83878E-2],"categories":[],"categories_nodes":[],"categories_segments":[],"categories_sizes":[],"default_left":[0,0,0,0,0,0,0,0,0,0,0,0,0,0,0,0,0,0,0,0,0,0,0,0,0,0,0,0,0],"id":12,"left_children":[1,3,5,7,9,11,13,15,17,19,21,23,25,-1,27,-1,-1,-1,-1,-1,-1,-1,-1,-1,-1,-1,-1,-1,-1],"loss_changes":[4.440421E2,9.804971E1,3.4980408E1,1.4187742E1,1.21622925E1,1.1370148E1,1.2624735E1,6.0881505E0,1.1248247E1,2.7190552E0,6.219027E0,1.1605223E1,2.4970398E0,0E0,8.502719E0,0E0,0E0,0E0,0E0,0E0,0E0,0E0,0E0,0E0,0E0,0E0,0E0,0E0,0E0],"parents":[2147483647,0,0,1,1,2,2,3,3,4,4,5,5,6,6,7,7,8,8,9,9,10,10,11,11,12,12,14,14],"right_children":[2,4,6,8,10,12,14,16,18,20,22,24,26,-1,28,-1,-1,-1,-1,-1,-1,-1,-1,-1,-1,-1,-1,-1,-1],"split_conditions":[9.814459E1,6.7E1,1.49E2,4.0435795E1,4E0,1.0628855E2,-3.2374102E-1,2.8E1,2E0,3E0,5.8157745E1,8.7E1,2E0,-6.7719705E-2,2.2760243E2,-5.433699E-2,8.5926175E-2,2.281779E-2,-6.918584E-2,8.560032E-2,5.0468307E-2,6.506135E-2,-5.4765124E-2,-5.8761902E-2,5.9964467E-2,-5.2714795E-2,-7.12105E-2,8.23883E-2,-4.83878E-2],"split_indices":[2,0,0,2,1,2,6,0,1,1,2,0,1,0,2,0,0,0,0,0,0,0,0,0,0,0,0,0,0],"split_type":[0,0,0,0,0,0,0,0,0,0,0,0,0,0,0,0,0,0,0,0,0,0,0,0,0,0,0,0,0],"sum_hessian":[1.2093582E3,5.799426E2,6.294155E2,9.156805E1,4.8837457E2,5.881379E2,4.1277664E1,1.5222129E1,7.6345924E1,4.7254105E2,1.583353E1,3.129132E1,5.5684656E2,9.274102E0,3.2003563E1,3.3147106E0,1.1907418E1,1.646558E1,5.988034E1,4.4402597E2,2.8515083E1,6.4217706E0,9.41176E0,1.7353462E1,1.3937859E1,1.0582474E2,4.510218E2,2.6638384E1,5.3651786E0],"tree_param":{"num_deleted":"0","num_feature":"8","num_nodes":"29","size_leaf_vector":"1"}},{"base_weights":[2.642323E-3,-5.6637555E-1,2.665865E-1,5.5229485E-1,-6.732099E-1,4.509962E-1,-6.1304235E-1,-1.4635345E-1,6.8060243E-1,-6.8301344E-1,2.9034498E-1,5.8472073E-1,-6.7219526E-2,-6.801741E-1,3.4633982E-1,5.9614774E-2,-6.323943E-2,2.386383E-2,7.852795E-2,-3.4326937E-2,-6.977847E-2,-1.50873605E-2,6.7815654E-2,6.80761E-2,8.789674E-3,-4.8520427E-2,5.1746555E-2,3.762076E-2,-6.984183E-2,5.920049E-2,-5.057136E-2],"categories":[],"categories_nodes":[],"categories_segments":[],"categories_sizes":[],"default_left":[0,0,0,0,0,0,0,0,0,0,0,0,0,0,0,0,0,0,0,0,0,0,0,0,0,0,0,0,0,0,0],"id":13,"left_children":[1,3,5,7,9,11,13,15,17,19,21,23,25,27,29,-1,-1,-1,-1,-1,-1,-1,-1,-1,-1,-1,-1,-1,-1,-1,-1],"loss_changes":[1.8601813E2,4.7276764E1,1.3752185E2,3.2158442E0,3.5867615E0,4.854982E1,9.706966E0,2.6205382E0,1.1795206E0,1.5439911E0,8.4057903E-1,2.649556E1,3.5561607E1,2.9181519E0,2.4511912E0,0E0,0E0,0E0,0E0,0E0,0E0,0E0,0E0,0E0,0E0,0E0,0E0,0E0,0E0,0E0,0E0],"parents":[2147483647,0,0,1,1,2,2,3,3,4,4,5,5,6,6,7,7,8,8,9,9,10,10,11,11,12,12,13,13,14,14],"right_children":[2,4,6,8,10,12,14,16,18,20,22,24,26,28,30,-1,-1,-1,-1,-1,-1,-1,-1,-1,-1,-1,-1,-1,-1,-1,-1],"split_conditions":[7.1869125E1,5.2E1,7E0,2E0,5E0,1.1E2,7.5E1,2.4E1,3.8675674E1,6.7E1,5.5514687E1,5E0,1.315644E2,9.640769E1,2.83E2,5.9614774E-2,-6.323943E-2,2.386383E-2,7.852795E-2,-3.4326937E-2,-6.977847E-2,-1.50873605E-2,6.7815654E-2,6.80761E-2,8.789674E-3,-4.8520427E-2,5.1746555E-2,3.762076E-2,-6.984183E-2,5.920049E-2,-5.057136E-2],"split_indices":[2,0,1,1,1,0,0,0,2,0,2,1,2,2,3,0,0,0,0,0,0,0,0,0,0,0,0,0,0,0,0],"split_type":[0,0,0,0,0,0,0,0,0,0,0,0,0,0,0,0,0,0,0,0,0,0,0,0,0,0,0,0,0,0,0],"sum_hessian":[1.2365553E3,3.9146936E2,8.450859E2,3.3763153E1,3.577062E2,6.9902594E2,1.4605994E2,5.216751E0,2.85464E1,3.5439163E2,3.3145607E0,5.5554126E2,1.4348468E2,1.3677994E2,9.279998E0,1.9742485E0,3.2425025E0,6.094431E0,2.245197E1,1.5776042E1,3.386156E2,1.8363178E0,1.4782429E0,4.652369E2,9.030437E1,8.376918E1,5.9715496E1,1.989042E0,1.347909E2,7.4400697E0,1.8399279E0],"tree_param":{"num_deleted":"0","num_feature":"8","num_nodes":"31","size_leaf_vector":"1"}},{"base_weights":[-2.1961906E-3,-4.8544177E-1,1.0470207E0,3.2481065E-1,-5.579429E-1,1.2529674E0,3.8527286E-1,-3.0880478E-1,8.884102E-1,-1.5913874E-1,-5.6621534E-1,-3.0431276E-2,1.2644854E0,-4.016182E-1,9.979923E-1,8.244049E-2,-5.5023324E-2,-7.0033665E-3,1.409182E-1,-4.117133E-2,9.521587E-2,-5.6842037E-2,8.038965E-3,1.3246165E-1,9.035823E-2,-5.176225E-2,7.2368875E-2,-3.054114E-2,1.19238436E-1],"categories":[],"categories_nodes":[],"categories_segments":[],"categories_sizes":[],"default_left":[0,0,0,0,0,0,0,0,0,0,0,0,0,0,0,0,0,0,0,0,0,0,0,0,0,0,0,0,0],"id":14,"left_children":[1,3,5,7,9,11,13,15,17,19,21,-1,23,25,27,-1,-1,-1,-1,-1,-1,-1,-1,-1,-1,-1,-1,-1,-1],"loss_changes":[3.5916492E2,2.8671638E1,2.9960297E1,1.4724491E1,1.379715E0,3.432495E0,2.6659603E1,5.8682594E0,1.0916594E1,3.323696E0,6.6744995E-1,0E0,2.4676514E0,3.580096E0,8.195114E0,0E0,0E0,0E0,0E0,0E0,0E0,0E0,0E0,0E0,0E0,0E0,0E0,0E0,0E0],"parents":[2147483647,0,0,1,1,2,2,3,3,4,4,5,5,6,6,7,7,8,8,9,9,10,10,12,12,13,13,14,14],"right_children":[2,4,6,8,10,12,14,16,18,20,22,-1,24,26,28,-1,-1,-1,-1,-1,-1,-1,-1,-1,-1,-1,-1,-1,-1],"split_conditions":[5E0,1E1,3.6E1,3E0,1.5E1,5.2E1,7E0,-1.0769231E0,1.5122614E2,1E0,2.4456843E3,-3.0431276E-2,2.5E1,4.8197418E2,1.768787E2,8.244049E-2,-5.5023324E-2,-7.0033665E-3,1.409182E-1,-4.117133E-2,9.521587E-2,-5.6842037E-2,8.038965E-3,1.3246165E-1,9.035823E-2,-5.176225E-2,7.2368875E-2,-3.054114E-2,1.19238436E-1],"split_indices":[1,0,0,1,0,2,1,6,2,5,2,0,0,2,2,0,0,0,0,0,0,0,0,0,0,0,0,0,0],"split_type":[0,0,0,0,0,0,0,0,0,0,0,0,0,0,0,0,0,0,0,0,0,0,0,0,0,0,0,0,0],"sum_hessian":[7.063686E2,4.8399072E2,2.2237787E2,3.9464657E1,4.4452606E2,1.6891525E2,5.3462612E1,1.8791159E1,2.0673496E1,9.444713E0,4.3508136E2,1.0535178E0,1.6786174E2,2.3555613E1,2.9907E1,2.8762076E0,1.5914951E1,7.583012E0,1.3090484E1,8.208592E0,1.2361205E0,4.337232E2,1.3581343E0,1.4159918E2,2.6262554E1,2.184382E1,1.711792E0,3.807371E0,2.6099628E1],"tree_param":{"num_deleted":"0","num_feature":"8","num_nodes":"29","size_leaf_vector":"1"}},{"base_weights":[-2.2891206E-3,5.6069225E-1,-5.919015E-1,-3.5155752E-1,7.4801826E-1,-6.4379567E-1,4.4585347E-1,5.0941825E-1,-5.0465214E-1,8.0710244E-1,1.9212247E-1,-4.5521733E-1,-6.886607E-2,-5.925032E-2,6.7863524E-1,-5.298195E-2,8.1353925E-2,1.2838125E-2,-6.72981E-2,8.165998E-2,4.2053886E-2,7.630361E-2,-2.230097E-2,-6.8151236E-2,1.6145842E-2,8.222494E-2,-4.9635153E-2],"categories":[],"categories_nodes":[],"categories_segments":[],"categories_sizes":[],"default_left":[0,0,0,0,0,0,0,0,0,0,0,0,0,0,0,0,0,0,0,0,0,0,0,0,0,0,0],"id":15,"left_children":[1,3,5,7,9,11,13,15,17,19,21,23,-1,-1,25,-1,-1,-1,-1,-1,-1,-1,-1,-1,-1,-1,-1],"loss_changes":[3.8803043E2,1.02453094E2,3.1036346E1,1.3775041E1,1.61503E1,4.290741E0,7.1176887E0,5.481744E0,9.418226E0,1.3029175E0,1.1785216E1,1.5117044E1,0E0,0E0,4.316552E0,0E0,0E0,0E0,0E0,0E0,0E0,0E0,0E0,0E0,0E0,0E0,0E0],"parents":[2147483647,0,0,1,1,2,2,3,3,4,4,5,5,6,6,7,7,8,8,9,9,10,10,11,11,14,14],"right_children":[2,4,6,8,10,12,14,16,18,20,22,24,-1,-1,26,-1,-1,-1,-1,-1,-1,-1,-1,-1,-1,-1,-1],"split_conditions":[1.0628855E2,6.7E1,1.7E2,4.0435795E1,3E0,2E0,-3.2374102E-1,2.8E1,2E0,6.060606E-3,6.552292E1,8.3E1,-6.886607E-2,-5.925032E-2,2.661E2,-5.298195E-2,8.1353925E-2,1.2838125E-2,-6.72981E-2,8.165998E-2,4.2053886E-2,7.630361E-2,-2.230097E-2,-6.8151236E-2,1.6145842E-2,8.222494E-2,-4.9635153E-2],"split_indices":[2,0,0,2,1,1,6,0,1,6,2,0,0,0,2,0,0,0,0,0,0,0,0,0,0,0,0],"split_type":[0,0,0,0,0,0,0,0,0,0,0,0,0,0,0,0,0,0,0,0,0,0,0,0,0,0,0],"sum_hessian":[1.1669752E3,5.969943E2,5.699809E2,1.0155583E2,4.9543848E2,5.4319727E2,2.6783632E1,1.4980544E1,8.657529E1,4.4743076E2,4.800771E1,1.0653807E2,4.3665918E2,4.6218567E0,2.2161776E1,3.2234123E0,1.1757132E1,1.823528E1,6.8340004E1,4.356158E2,1.1814949E1,1.9858755E1,2.8148954E1,7.786107E1,2.8677E1,2.0015556E1,2.1462195E0],"tree_param":{"num_deleted":"0","num_feature":"8","num_nodes":"27","size_leaf_vector":"1"}},{"base_weights":[3.2820157E-3,-5.422517E-1,2.487822E-1,5.183075E-1,-6.4713764E-1,4.201967E-1,-5.882006E-1,-1.3236788E-1,6.376916E-1,-6.6441375E-1,-5.8016635E-2,5.733887E-1,1.9234695E-2,-6.5437126E-1,3.2819813E-1,5.8009442E-2,-6.0804736E-2,6.809866E-2,-1.3711867E-2,-4.0171407E-2,-6.7977555E-2,-4.8893522E-2,6.7336634E-2,6.834772E-2,4.8566796E-3,6.399363E-2,-3.9279234E-2,3.589966E-2,-6.726433E-2,5.616618E-2,-4.8830017E-2],"categories":[],"categories_nodes":[],"categories_segments":[],"categories_sizes":[],"default_left":[0,0,0,0,0,0,0,0,0,0,0,0,0,0,0,0,0,0,0,0,0,0,0,0,0,0,0,0,0,0,0],"id":16,"left_children":[1,3,5,7,9,11,13,15,17,19,21,23,25,27,29,-1,-1,-1,-1,-1,-1,-1,-1,-1,-1,-1,-1,-1,-1,-1,-1],"loss_changes":[1.6085808E2,4.1800323E1,1.1908516E2,2.7334862E0,3.4183807E0,4.225425E1,8.778042E0,2.4251425E0,1.0657644E0,1.0581818E0,3.7243314E0,2.8730225E1,4.9163258E1,2.6864014E0,2.2140808E0,0E0,0E0,0E0,0E0,0E0,0E0,0E0,0E0,0E0,0E0,0E0,0E0,0E0,0E0,0E0,0E0],"parents":[2147483647,0,0,1,1,2,2,3,3,4,4,5,5,6,6,7,7,8,8,9,9,10,10,11,11,12,12,13,13,14,14],"right_children":[2,4,6,8,10,12,14,16,18,20,22,24,26,28,30,-1,-1,-1,-1,-1,-1,-1,-1,-1,-1,-1,-1,-1,-1,-1,-1],"split_conditions":[7.1869125E1,5.2E1,7E0,2E0,4E0,9.4E1,7.5E1,2.4E1,2.83E2,7.2E1,5.8157745E1,5E0,-3.1914893E-1,9.640769E1,2.83E2,5.8009442E-2,-6.0804736E-2,6.809866E-2,-1.3711867E-2,-4.0171407E-2,-6.7977555E-2,-4.8893522E-2,6.7336634E-2,6.834772E-2,4.8566796E-3,6.399363E-2,-3.9279234E-2,3.589966E-2,-6.726433E-2,5.616618E-2,-4.8830017E-2],"split_indices":[2,0,1,1,1,0,0,0,3,0,2,1,6,2,3,0,0,0,0,0,0,0,0,0,0,0,0,0,0,0,0],"split_type":[0,0,0,0,0,0,0,0,0,0,0,0,0,0,0,0,0,0,0,0,0,0,0,0,0,0,0,0,0,0,0],"sum_hessian":[1.1990659E3,3.7175922E2,8.273067E2,3.310229E1,3.3865695E2,6.8708856E2,1.4021814E2,5.1150637E0,2.7987226E1,3.2888455E2,9.772399E0,4.968366E2,1.9025194E2,1.310419E2,9.176237E0,1.9599646E0,3.155099E0,2.6620796E1,1.3664291E0,1.966954E1,3.09215E2,6.357914E0,3.4144845E0,4.1043912E2,8.63975E1,7.5684E1,1.1456794E2,1.9906942E0,1.2905121E2,7.378571E0,1.7976662E0],"tree_param":{"num_deleted":"0","num_feature":"8","num_nodes":"31","size_leaf_vector":"1"}},{"base_weights":[-1.8404522E-3,-4.7569397E-1,9.3481773E-1,3.226678E-1,-5.513487E-1,1.0877502E0,2.3677298E-1,-2.935354E-1,8.3530205E-1,-1.430479E-1,-5.6008697E-1,1.5653001E-1,1.11657E0,-3.4649885E-1,1.054675E0,-5.449633E-2,7.9913385E-2,-4.722575E-2,1.1418815E-1,-3.994913E-2,9.1423586E-2,-5.6242514E-2,8.52115E-3,1.057324E-1,-4.8977297E-2,8.6946845E-2,1.18590765E-1,-4.4755787E-2,5.99221E-2,-2.3801564E-3,1.15444064E-1],"categories":[],"categories_nodes":[],"categories_segments":[],"categories_sizes":[],"default_left":[0,0,0,0,0,0,0,0,0,0,0,0,0,0,0,0,0,0,0,0,0,0,0,0,0,0,0,0,0,0,0],"id":17,"left_children":[1,3,5,7,9,11,13,15,17,19,21,23,25,27,29,-1,-1,-1,-1,-1,-1,-1,-1,-1,-1,-1,-1,-1,-1,-1,-1],"loss_changes":[3.0550928E2,2.7786018E1,2.4428452E1,1.2942707E1,1.4108658E0,4.908432E0,2.0800636E1,5.653725E0,9.439478E0,3.1034565E0,6.647186E-1,4.5051894E0,2.1138763E0,2.7298794E0,1.9726543E0,0E0,0E0,0E0,0E0,0E0,0E0,0E0,0E0,0E0,0E0,0E0,0E0,0E0,0E0,0E0,0E0],"parents":[2147483647,0,0,1,1,2,2,3,3,4,4,5,5,6,6,7,7,8,8,9,9,10,10,11,11,12,12,13,13,14,14],"right_children":[2,4,6,8,10,12,14,16,18,20,22,24,26,28,30,-1,-1,-1,-1,-1,-1,-1,-1,-1,-1,-1,-1,-1,-1,-1,-1],"split_conditions":[5E0,1E1,4.4E1,3E0,1.5E1,1.0016725E2,8E0,5.4191327E2,1.1419879E2,1E0,2.4456843E3,1.1E1,2.329478E2,6.0755E2,1.84478E2,-5.449633E-2,7.9913385E-2,-4.722575E-2,1.1418815E-1,-3.994913E-2,9.1423586E-2,-5.6242514E-2,8.52115E-3,1.057324E-1,-4.8977297E-2,8.6946845E-2,1.18590765E-1,-4.4755787E-2,5.99221E-2,-2.3801564E-3,1.15444064E-1],"split_indices":[1,0,0,1,0,2,1,2,2,5,2,0,2,4,2,0,0,0,0,0,0,0,0,0,0,0,0,0,0,0,0],"split_type":[0,0,0,0,0,0,0,0,0,0,0,0,0,0,0,0,0,0,0,0,0,0,0,0,0,0,0,0,0,0,0],"sum_hessian":[6.86332E2,4.5608936E2,2.3024258E2,3.91964E1,4.1689297E2,1.8840681E2,4.183576E1,1.799419E1,2.120221E1,9.099188E0,4.0779376E2,5.8489137E0,1.825579E2,2.4757067E1,1.7078691E1,1.5035673E1,2.9585178E0,3.9243724E0,1.7277838E1,7.8237066E0,1.275481E0,4.0644946E2,1.3443036E0,2.1777232E0,3.6711905E0,4.296857E1,1.3958934E2,2.2842848E1,1.914218E0,1.5105811E0,1.55681095E1],"tree_param":{"num_deleted":"0","num_feature":"8","num_nodes":"31","size_leaf_vector":"1"}},{"base_weights":[-3.3300726E-3,5.2781934E-1,-5.771145E-1,-3.3739522E-1,7.055295E-1,-6.2622166E-1,4.0456975E-1,4.8913884E-1,-4.8458457E-1,7.6464015E-1,1.6519186E-1,-4.431797E-1,-6.7053966E-2,-5.706647E-2,6.2794125E-1,-5.0966192E-2,7.748358E-2,1.28242625E-2,-6.516003E-2,7.7508144E-2,3.6475245E-2,7.184147E-2,-2.1894328E-2,-6.1784703E-2,2.6644919E-2,7.7471696E-2,-4.947809E-2],"categories":[],"categories_nodes":[],"categories_segments":[],"categories_sizes":[],"default_left":[0,0,0,0,0,0,0,0,0,0,0,0,0,0,0,0,0,0,0,0,0,0,0,0,0,0,0],"id":18,"left_children":[1,3,5,7,9,11,13,15,17,19,21,23,-1,-1,25,-1,-1,-1,-1,-1,-1,-1,-1,-1,-1,-1,-1],"loss_changes":[3.4204767E2,8.985127E1,2.6261902E1,1.2401154E1,1.5327255E1,3.8740387E0,6.089679E0,4.8498096E0,8.821865E0,1.5370941E0,1.056738E1,1.2953587E1,0E0,0E0,3.9893599E0,0E0,0E0,0E0,0E0,0E0,0E0,0E0,0E0,0E0,0E0,0E0,0E0],"parents":[2147483647,0,0,1,1,2,2,3,3,4,4,5,5,6,6,7,7,8,8,9,9,10,10,11,11,14,14],"right_children":[2,4,6,8,10,12,14,16,18,20,22,24,-1,-1,26,-1,-1,-1,-1,-1,-1,-1,-1,-1,-1,-1,-1],"split_conditions":[1.074769E2,6.7E1,1.7E2,4.0435795E1,3E0,2E0,-3.2374102E-1,2.8E1,2E0,6.060606E-3,6.552292E1,9.7E1,-6.7053966E-2,-5.706647E-2,2.661E2,-5.0966192E-2,7.748358E-2,1.28242625E-2,-6.516003E-2,7.7508144E-2,3.6475245E-2,7.184147E-2,-2.1894328E-2,-6.1784703E-2,2.6644919E-2,7.7471696E-2,-4.947809E-2],"split_indices":[2,0,0,2,1,1,6,0,1,6,2,0,0,0,2,0,0,0,0,0,0,0,0,0,0,0,0],"split_type":[0,0,0,0,0,0,0,0,0,0,0,0,0,0,0,0,0,0,0,0,0,0,0,0,0,0,0],"sum_hessian":[1.1203319E3,5.818222E2,5.3850977E2,9.898704E1,4.8283514E2,5.131999E2,2.5309881E1,1.4611837E1,8.4375206E1,4.3484933E2,4.7985813E1,1.02179214E2,4.1102066E2,4.426987E0,2.0882893E1,3.075593E0,1.1536244E1,1.812E1,6.62552E1,4.228698E2,1.1979537E1,1.9308268E1,2.8677547E1,8.210043E1,2.0078781E1,1.8742601E1,2.1402917E0],"tree_param":{"num_deleted":"0","num_feature":"8","num_nodes":"27","size_leaf_vector":"1"}},{"base_weights":[3.8763378E-3,-5.2132577E-1,2.3306403E-1,4.8699126E-1,-6.245214E-1,4.177159E-1,-4.6006146E-1,-1.21229075E-1,5.989097E-1,-6.421652E-1,-4.563993E-2,5.8400637E-1,8.3105555E-3,-6.655466E-1,9.551287E-2,5.63347E-2,-5.870552E-2,1.977676E-2,6.9584526E-2,-3.840655E-2,-6.578893E-2,-4.610996E-2,6.26427E-2,1.7786585E-2,6.7975946E-2,5.8640476E-2,-3.6568638E-2,-6.9165885E-2,-3.5266247E-2,5.596255E-2,-4.5351785E-2],"categories":[],"categories_nodes":[],"categories_segments":[],"categories_sizes":[],"default_left":[0,0,0,0,0,0,0,0,0,0,0,0,0,0,0,0,0,0,0,0,0,0,0,0,0,0,0,0,0,0,0],"id":19,"left_children":[1,3,5,7,9,11,13,15,17,19,21,23,25,27,29,-1,-1,-1,-1,-1,-1,-1,-1,-1,-1,-1,-1,-1,-1,-1,-1],"loss_changes":[1.3960693E2,3.6968628E1,1.0353471E2,2.3377328E0,3.2399368E0,4.3438034E1,1.9509136E1,2.2450788E0,9.6176815E-1,1.0076294E0,3.232873E0,1.7526215E1,4.0284733E1,7.729988E-1,1.2195344E1,0E0,0E0,0E0,0E0,0E0,0E0,0E0,0E0,0E0,0E0,0E0,0E0,0E0,0E0,0E0,0E0],"parents":[2147483647,0,0,1,1,2,2,3,3,4,4,5,5,6,6,7,7,8,8,9,9,10,10,11,11,12,12,13,13,14,14],"right_children":[2,4,6,8,10,12,14,16,18,20,22,24,26,28,30,-1,-1,-1,-1,-1,-1,-1,-1,-1,-1,-1,-1,-1,-1,-1,-1],"split_conditions":[7.1869125E1,5.2E1,6E0,2E0,4E0,9.4E1,3.7E1,2.4E1,3.8675674E1,7.2E1,5.8157745E1,1.5E1,-3.1914893E-1,3.1E1,8E0,5.63347E-2,-5.870552E-2,1.977676E-2,6.9584526E-2,-3.840655E-2,-6.578893E-2,-4.610996E-2,6.26427E-2,1.7786585E-2,6.7975946E-2,5.8640476E-2,-3.6568638E-2,-6.9165885E-2,-3.5266247E-2,5.596255E-2,-4.5351785E-2],"split_indices":[2,0,1,1,1,0,0,0,2,0,2,0,6,0,1,0,0,0,0,0,0,0,0,0,0,0,0,0,0,0,0],"split_type":[0,0,0,0,0,0,0,0,0,0,0,0,0,0,0,0,0,0,0,0,0,0,0,0,0,0,0,0,0,0,0],"sum_hessian":[1.1578069E3,3.5136072E2,8.0644617E2,3.22759E1,3.190848E2,6.3711346E2,1.6933269E2,5.003144E0,2.7272757E1,3.0954092E2,9.543881E0,4.5277917E2,1.8433432E2,1.2346856E2,4.586412E1,1.9411249E0,3.0620189E0,5.8994884E0,2.1373268E1,1.9235146E1,2.903058E2,6.091892E0,3.4519897E0,8.6928E1,3.6585117E2,7.218643E1,1.12147896E2,1.1284066E2,1.06279E1,2.4843687E1,2.1020433E1],"tree_param":{"num_deleted":"0","num_feature":"8","num_nodes":"31","size_leaf_vector":"1"}},{"base_weights":[-1.14008E-3,-4.6591377E-1,8.468847E-1,3.220763E-1,-5.450542E-1,1.0674185E0,4.4069377E-1,-2.7754512E-1,7.8969324E-1,-1.2606725E-1,-5.5431026E-1,1.0915256E-2,1.0730852E-1,-2.0875256E-1,8.940571E-1,7.72705E-2,-5.351689E-2,-4.6207394E-2,1.0605172E-1,-3.8684454E-2,8.819657E-2,-5.5679746E-2,9.081204E-3,-5.200658E-2,8.834849E-2,-5.4852925E-3,9.908857E-2],"categories":[],"categories_nodes":[],"categories_segments":[],"categories_sizes":[],"default_left":[0,0,0,0,0,0,0,0,0,0,0,0,0,0,0,0,0,0,0,0,0,0,0,0,0,0,0],"id":20,"left_children":[1,3,5,7,9,11,13,15,17,19,21,-1,-1,23,25,-1,-1,-1,-1,-1,-1,-1,-1,-1,-1,-1,-1],"loss_changes":[2.623737E2,2.699179E1,2.0641144E1,1.1399665E1,1.4470139E0,7.0851135E-1,2.510567E1,5.3409004E0,8.17306E0,2.903775E0,6.6412354E-1,0E0,0E0,1.2565607E1,4.6511955E0,0E0,0E0,0E0,0E0,0E0,0E0,0E0,0E0,0E0,0E0,0E0,0E0],"parents":[2147483647,0,0,1,1,2,2,3,3,4,4,5,5,6,6,7,7,8,8,9,9,10,10,13,13,14,14],"right_children":[2,4,6,8,10,12,14,16,18,20,22,-1,-1,24,26,-1,-1,-1,-1,-1,-1,-1,-1,-1,-1,-1,-1],"split_conditions":[5E0,1E1,2.5E1,3E0,1.5E1,1.037E2,7E0,-1.0769231E0,1.1419879E2,1E0,2.4456843E3,1.0915256E-2,1.0730852E-1,3.68614E2,1.480451E2,7.72705E-2,-5.351689E-2,-4.6207394E-2,1.0605172E-1,-3.8684454E-2,8.819657E-2,-5.5679746E-2,9.081204E-3,-5.200658E-2,8.834849E-2,-5.4852925E-3,9.908857E-2],"split_indices":[1,0,0,1,0,4,1,6,2,5,2,0,0,2,2,0,0,0,0,0,0,0,0,0,0,0,0],"split_type":[0,0,0,0,0,0,0,0,0,0,0,0,0,0,0,0,0,0,0,0,0,0,0,0,0,0,0],"sum_hessian":[6.6368604E2,4.2901047E2,2.3467554E2,3.8874336E1,3.9013614E2,1.5104218E2,8.363336E1,1.7211123E1,2.1663214E1,8.748434E0,3.8138773E2,1.0070602E0,1.5003511E2,3.4603355E1,4.903001E1,2.9963994E0,1.4214723E1,3.7276373E0,1.7935575E1,7.439961E0,1.3084735E0,3.8005936E2,1.3283553E0,2.733585E1,7.267504E0,4.579999E0,4.445001E1],"tree_param":{"num_deleted":"0","num_feature":"8","num_nodes":"27","size_leaf_vector":"1"}},{"base_weights":[-4.2247805E-3,5.0333506E-1,-5.594687E-1,-3.222806E-1,6.731027E-1,-6.078197E-1,3.796079E-1,4.64636E-1,-4.644913E-1,7.3039335E-1,1.5849303E-1,-4.2589772E-1,-6.526867E-2,-5.5196375E-2,5.896379E-1,-4.982585E-2,7.400139E-2,1.2675476E-2,-6.3276E-2,7.406936E-2,3.443998E-2,6.80198E-2,-1.975093E-2,-6.434347E-2,1.1103448E-2,7.345652E-2,-4.9274445E-2],"categories":[],"categories_nodes":[],"categories_segments":[],"categories_sizes":[],"default_left":[0,0,0,0,0,0,0,0,0,0,0,0,0,0,0,0,0,0,0,0,0,0,0,0,0,0,0],"id":21,"left_children":[1,3,5,7,9,11,13,15,17,19,21,23,-1,-1,25,-1,-1,-1,-1,-1,-1,-1,-1,-1,-1,-1,-1],"loss_changes":[3.0236093E2,7.8780594E1,2.3495163E1,1.0989787E1,1.3600616E1,3.7025146E0,5.3547907E0,4.408601E0,8.242174E0,1.4082184E0,9.027599E0,1.1676504E1,0E0,0E0,3.72817E0,0E0,0E0,0E0,0E0,0E0,0E0,0E0,0E0,0E0,0E0,0E0,0E0],"parents":[2147483647,0,0,1,1,2,2,3,3,4,4,5,5,6,6,7,7,8,8,9,9,10,10,11,11,14,14],"right_children":[2,4,6,8,10,12,14,16,18,20,22,24,-1,-1,26,-1,-1,-1,-1,-1,-1,-1,-1,-1,-1,-1,-1],"split_conditions":[1.074769E2,6.7E1,1.7E2,4.0435795E1,3E0,2E0,-3.2374102E-1,2.8E1,2E0,6.060606E-3,6.552292E1,8.3E1,-6.526867E-2,-5.5196375E-2,2.661E2,-4.982585E-2,7.400139E-2,1.2675476E-2,-6.3276E-2,7.406936E-2,3.443998E-2,6.80198E-2,-1.975093E-2,-6.434347E-2,1.1103448E-2,7.345652E-2,-4.9274445E-2],"split_indices":[2,0,0,2,1,1,6,0,1,6,2,0,0,0,2,0,0,0,0,0,0,0,0,0,0,0,0],"split_type":[0,0,0,0,0,0,0,0,0,0,0,0,0,0,0,0,0,0,0,0,0,0,0,0,0,0,0],"sum_hessian":[1.0708895E3,5.59517E2,5.113725E2,9.527524E1,4.642418E2,4.866678E2,2.470471E1,1.4235654E1,8.103958E1,4.1735864E2,4.6883167E1,9.835621E1,3.8831158E2,4.245611E0,2.0459099E1,2.9858563E0,1.1249798E1,1.8008781E1,6.30308E1,4.0561588E2,1.1742764E1,1.8646673E1,2.8236496E1,6.985589E1,2.8500319E1,1.8326578E1,2.1325212E0],"tree_param":{"num_deleted":"0","num_feature":"8","num_nodes":"27","size_leaf_vector":"1"}},{"base_weights":[4.452018E-3,-5.0287205E-1,2.1924491E-1,5.8877206E-1,-5.9289896E-1,3.689222E-1,-5.450804E-1,6.3646597E-1,-1.2384313E-2,-6.2845534E-1,-1.9560666E-1,4.388678E-1,-3.07786E-1,-6.109761E-1,3.0846912E-1,7.172011E-2,2.4285397E-2,-6.3105464E-2,-4.8962696E-3,1.947675E-2,-5.271551E-2,4.8613604E-2,-1.7439833E-2,-5.495731E-2,5.283121E-2,3.4778174E-2,-6.3001886E-2,5.2158803E-2,-4.5371573E-2],"categories":[],"categories_nodes":[],"categories_segments":[],"categories_sizes":[],"default_left":[0,0,0,0,0,0,0,0,0,0,0,0,0,0,0,0,0,0,0,0,0,0,0,0,0,0,0,0,0],"id":22,"left_children":[1,3,5,7,9,11,13,15,-1,17,19,21,23,25,27,-1,-1,-1,-1,-1,-1,-1,-1,-1,-1,-1,-1,-1,-1],"loss_changes":[1.2157486E2,3.2963356E1,8.987013E1,9.551811E-1,4.214897E0,3.1187546E1,7.430588E0,5.989971E-1,0E0,3.929596E-1,3.555365E0,1.7332642E1,1.2833295E1,2.4075737E0,1.843564E0,0E0,0E0,0E0,0E0,0E0,0E0,0E0,0E0,0E0,0E0,0E0,0E0,0E0,0E0],"parents":[2147483647,0,0,1,1,2,2,3,3,4,4,5,5,6,6,7,7,9,9,10,10,11,11,12,12,13,13,14,14],"right_children":[2,4,6,8,10,12,14,16,-1,18,20,22,24,26,28,-1,-1,-1,-1,-1,-1,-1,-1,-1,-1,-1,-1,-1,-1],"split_conditions":[7.1869125E1,3.8E1,7E0,6E0,3E0,1.49E2,7.5E1,2.9E1,-1.2384313E-2,6.666667E-1,9.4E1,1E0,1.84478E2,9.640769E1,2.83E2,7.172011E-2,2.4285397E-2,-6.3105464E-2,-4.8962696E-3,1.947675E-2,-5.271551E-2,4.8613604E-2,-1.7439833E-2,-5.495731E-2,5.283121E-2,3.4778174E-2,-6.3001886E-2,5.2158803E-2,-4.5371573E-2],"split_indices":[2,0,1,1,1,0,0,0,0,5,0,5,2,2,3,0,0,0,0,0,0,0,0,0,0,0,0,0,0],"split_type":[0,0,0,0,0,0,0,0,0,0,0,0,0,0,0,0,0,0,0,0,0,0,0,0,0,0,0,0,0],"sum_hessian":[1.113665E3,3.308595E2,7.8280554E2,2.4784828E1,3.0607468E2,6.550457E2,1.2775981E2,2.333024E1,1.4545871E0,2.803981E2,2.567656E1,5.9400037E2,6.104534E1,1.1886723E2,8.892584E0,1.8677198E1,4.6530437E0,2.7905743E2,1.340683E0,1.1981623E1,1.3694938E1,5.5168585E2,4.2314568E1,4.76177E1,1.342764E1,1.9787424E0,1.1688849E2,7.1961064E0,1.6964774E0],"tree_param":{"num_deleted":"0","num_feature":"8","num_nodes":"29","size_leaf_vector":"1"}},{"base_weights":[-6.781765E-4,-4.5700404E-1,7.799797E-1,4.1958952E-1,-5.284834E-1,9.295591E-1,2.75964E-1,-1.9533253E-1,8.8736147E-1,-5.4236114E-1,8.1313275E-2,9.931169E-2,6.918654E-1,-3.8625863E-1,7.263945E-1,-5.241874E-2,9.7958796E-2,-4.414783E-2,1.2007095E-1,-5.476252E-2,1.3615387E-2,8.815958E-2,-4.7228243E-2,5.31814E-3,1.02518894E-1,-5.047821E-2,5.8697093E-2,-4.7638085E-2,8.498037E-2],"categories":[],"categories_nodes":[],"categories_segments":[],"categories_sizes":[],"default_left":[0,0,0,0,0,0,0,0,0,0,0,0,0,0,0,0,0,0,0,0,0,0,0,0,0,0,0,0,0],"id":23,"left_children":[1,3,5,7,9,11,13,15,17,19,21,-1,23,25,27,-1,-1,-1,-1,-1,-1,-1,-1,-1,-1,-1,-1,-1,-1],"loss_changes":[2.2831825E2,2.556601E1,1.7568604E1,9.105575E0,3.2127457E0,2.0609894E0,1.6845089E1,6.0139494E0,7.9489965E0,1.3826523E0,4.4928327E0,0E0,8.81756E0,2.9647884E0,5.3623123E0,0E0,0E0,0E0,0E0,0E0,0E0,0E0,0E0,0E0,0E0,0E0,0E0,0E0,0E0],"parents":[2147483647,0,0,1,1,2,2,3,3,4,4,5,5,6,6,7,7,8,8,9,9,10,10,12,12,13,13,14,14],"right_children":[2,4,6,8,10,12,14,16,18,20,22,-1,24,26,28,-1,-1,-1,-1,-1,-1,-1,-1,-1,-1,-1,-1,-1,-1],"split_conditions":[5E0,8E0,3.6E1,3E0,1E0,2.2E1,7E0,5.4191327E2,1.1419879E2,1.2126982E3,1.5E1,9.931169E-2,2.5435347E2,4.8197418E2,1.480451E2,-5.241874E-2,9.7958796E-2,-4.414783E-2,1.2007095E-1,-5.476252E-2,1.3615387E-2,8.815958E-2,-4.7228243E-2,5.31814E-3,1.02518894E-1,-5.047821E-2,5.8697093E-2,-4.7638085E-2,8.498037E-2],"split_indices":[1,0,0,1,5,0,1,2,2,2,0,0,2,2,2,0,0,0,0,0,0,0,0,0,0,0,0,0,0],"split_type":[0,0,0,0,0,0,0,0,0,0,0,0,0,0,0,0,0,0,0,0,0,0,0,0,0,0,0,0,0],"sum_hessian":[6.3892084E2,4.0348328E2,2.3543756E2,3.0053198E1,3.7343008E2,1.809051E2,5.4532455E1,1.32359495E1,1.681725E1,3.652288E2,8.20128E0,1.402303E2,4.0674805E1,2.213381E1,3.2398647E1,1.0774163E1,2.4617858E0,3.1308968E0,1.3686353E1,3.626085E2,2.6202867E0,3.111205E0,5.0900745E0,1.4345954E1,2.6328852E1,2.0159986E1,1.9738228E0,2.7487283E0,2.9649918E1],"tree_param":{"num_deleted":"0","num_feature":"8","num_nodes":"29","size_leaf_vector":"1"}},{"base_weights":[-5.0576576E-3,4.8258445E-1,-5.4391885E-1,-3.1074286E-1,6.463621E-1,-5.9147865E-1,3.592388E-1,4.4734743E-1,-4.4813764E-1,7.0309144E-1,1.4939734E-1,-4.063409E-1,-6.3790254E-2,-5.402722E-2,5.62151E-1,-4.7901656E-2,7.078809E-2,1.2244666E-2,-6.1731465E-2,7.1352825E-2,3.2271396E-2,-1.4569442E-2,7.345883E-2,1.2801006E-2,-6.2481996E-2,7.013531E-2,-4.7525063E-2],"categories":[],"categories_nodes":[],"categories_segments":[],"categories_sizes":[],"default_left":[0,0,0,0,0,0,0,0,0,0,0,0,0,0,0,0,0,0,0,0,0,0,0,0,0,0,0],"id":24,"left_children":[1,3,5,7,9,11,13,15,17,19,21,23,-1,-1,25,-1,-1,-1,-1,-1,-1,-1,-1,-1,-1,-1,-1],"loss_changes":[2.6892517E2,7.000506E1,2.1095505E1,9.846297E0,1.2458664E1,3.7135773E0,4.856348E0,3.8891668E0,7.6916523E0,1.3565369E0,8.210837E0,1.1220134E1,0E0,0E0,3.3430834E0,0E0,0E0,0E0,0E0,0E0,0E0,0E0,0E0,0E0,0E0,0E0,0E0],"parents":[2147483647,0,0,1,1,2,2,3,3,4,4,5,5,6,6,7,7,8,8,9,9,10,10,11,11,14,14],"right_children":[2,4,6,8,10,12,14,16,18,20,22,24,-1,-1,26,-1,-1,-1,-1,-1,-1,-1,-1,-1,-1,-1,-1],"split_conditions":[1.074769E2,6.7E1,1.7E2,4.0435795E1,3E0,2E0,-3.2374102E-1,2.8E1,2E0,6.060606E-3,1.26E2,1.5991458E2,-6.3790254E-2,-5.402722E-2,2.661E2,-4.7901656E-2,7.078809E-2,1.2244666E-2,-6.1731465E-2,7.1352825E-2,3.2271396E-2,-1.4569442E-2,7.345883E-2,1.2801006E-2,-6.2481996E-2,7.013531E-2,-4.7525063E-2],"split_indices":[2,0,0,2,1,1,6,0,1,6,0,2,0,0,2,0,0,0,0,0,0,0,0,0,0,0,0],"split_type":[0,0,0,0,0,0,0,0,0,0,0,0,0,0,0,0,0,0,0,0,0,0,0,0,0,0,0],"sum_hessian":[1.0214198E3,5.362475E2,4.8517236E2,9.160794E1,4.4463953E2,4.612294E2,2.3942965E1,1.37093315E1,7.789861E1,3.9871124E2,4.592828E1,9.442333E1,3.6680606E2,4.1009297E0,1.9842033E1,2.8252287E0,1.0884103E1,1.7877909E1,6.0020702E1,3.8721115E2,1.1500111E1,3.1031292E1,1.4896988E1,2.7522799E1,6.690053E1,1.7780165E1,2.0618696E0],"tree_param":{"num_deleted":"0","num_feature":"8","num_nodes":"27","size_leaf_vector":"1"}},{"base_weights":[4.91945E-3,-4.9113536E-1,2.0434481E-1,4.362474E-1,-5.9207076E-1,3.655988E-1,-4.2536977E-1,-1.9077934E-1,5.452203E-1,-6.08938E-1,-2.5863824E-2,5.2524555E-1,5.970848E-3,-6.271234E-1,9.410727E-2,4.748624E-2,-5.5675853E-2,5.8560915E-2,-1.4343786E-2,-2.8520633E-2,-6.2084522E-2,-4.1533094E-2,7.199787E-2,1.3961898E-2,6.210364E-2,-5.018676E-2,3.8215693E-2,-6.538548E-2,-3.2211162E-2,5.0738882E-2,-4.1133918E-2],"categories":[],"categories_nodes":[],"categories_segments":[],"categories_sizes":[],"default_left":[0,0,0,0,0,0,0,0,0,0,0,0,0,0,0,0,0,0,0,0,0,0,0,0,0,0,0,0,0,0,0],"id":25,"left_children":[1,3,5,7,9,11,13,15,17,19,21,23,25,27,29,-1,-1,-1,-1,-1,-1,-1,-1,-1,-1,-1,-1,-1,-1,-1,-1],"loss_changes":[1.060325E2,2.9027725E1,7.7783485E1,2.2046986E0,2.6354446E0,3.4970894E1,1.6441856E1,1.55375E0,8.1970596E-1,8.619003E-1,2.935113E0,1.5496887E1,3.6163628E1,7.084236E-1,9.524528E0,0E0,0E0,0E0,0E0,0E0,0E0,0E0,0E0,0E0,0E0,0E0,0E0,0E0,0E0,0E0,0E0],"parents":[2147483647,0,0,1,1,2,2,3,3,4,4,5,5,6,6,7,7,8,8,9,9,10,10,11,11,12,12,13,13,14,14],"right_children":[2,4,6,8,10,12,14,16,18,20,22,24,26,28,30,-1,-1,-1,-1,-1,-1,-1,-1,-1,-1,-1,-1,-1,-1,-1,-1],"split_conditions":[7.1241974E1,5.2E1,6E0,2E0,4E0,9E1,3.7E1,2.1E1,2.83E2,6.4E1,5.8157745E1,1.5E1,1.0628855E2,3.1E1,8E0,4.748624E-2,-5.5675853E-2,5.8560915E-2,-1.4343786E-2,-2.8520633E-2,-6.2084522E-2,-4.1533094E-2,7.199787E-2,1.3961898E-2,6.210364E-2,-5.018676E-2,3.8215693E-2,-6.538548E-2,-3.2211162E-2,5.0738882E-2,-4.1133918E-2],"split_indices":[2,0,1,1,1,0,0,0,3,0,2,0,2,0,1,0,0,0,0,0,0,0,0,0,0,0,0,0,0,0,0],"split_type":[0,0,0,0,0,0,0,0,0,0,0,0,0,0,0,0,0,0,0,0,0,0,0,0,0,0,0,0,0,0,0],"sum_hessian":[1.0698231E3,3.0634683E2,7.6347626E2,2.974364E1,2.7660318E2,6.08161E2,1.5531526E2,4.292727E0,2.5450912E1,2.6852832E2,8.074887E0,4.2086795E2,1.8729308E2,1.1171886E2,4.3596405E1,1.4173477E0,2.8753793E0,2.4182295E1,1.2686194E0,1.041163E1,2.5811667E2,5.5959234E0,2.478964E0,8.423188E1,3.3663608E2,7.955816E1,1.0773492E2,1.0166516E2,1.0053699E1,2.398284E1,1.9613567E1],"tree_param":{"num_deleted":"0","num_feature":"8","num_nodes":"31","size_leaf_vector":"1"}},{"base_weights":[-1.5765095E-4,-4.483665E-1,7.2531843E-1,2.258572E-1,-5.4405564E-1,8.3472145E-1,1.259707E-1,-3.1146938E-1,6.1620164E-1,1.1101632E-2,-5.4699756E-2,4.0851074E-1,8.833597E-1,-4.267996E-1,7.8728557E-1,-5.337816E-2,6.454376E-2,-4.740913E-3,1.1105639E-1,1.0107527E-1,-1.433454E-2,9.350279E-2,6.861428E-2,-5.5507846E-2,5.9165187E-2,-9.231647E-3,8.8445395E-2],"categories":[],"categories_nodes":[],"categories_segments":[],"categories_sizes":[],"default_left":[0,0,0,0,0,0,0,0,0,0,0,0,0,0,0,0,0,0,0,0,0,0,0,0,0,0,0],"id":26,"left_children":[1,3,5,7,9,11,13,15,17,-1,-1,19,21,23,25,-1,-1,-1,-1,-1,-1,-1,-1,-1,-1,-1,-1],"loss_changes":[2.0003441E2,2.4655228E1,1.5299019E1,1.0252568E1,7.030258E-1,3.7537537E0,1.4022741E1,4.7794757E0,9.277498E0,0E0,0E0,7.520035E0,1.1650391E0,3.0775435E0,1.5686741E0,0E0,0E0,0E0,0E0,0E0,0E0,0E0,0E0,0E0,0E0,0E0,0E0],"parents":[2147483647,0,0,1,1,2,2,3,3,4,4,5,5,6,6,7,7,8,8,11,11,12,12,13,13,14,14],"right_children":[2,4,6,8,10,12,14,16,18,-1,-1,20,22,24,26,-1,-1,-1,-1,-1,-1,-1,-1,-1,-1,-1,-1],"split_conditions":[5E0,1.5E1,4.7E1,3E0,-9.508197E-1,1.6399329E2,8E0,5.7642285E2,1.6841379E2,1.1101632E-2,-5.4699756E-2,1.7E1,2.5E1,4.8197418E2,1.84478E2,-5.337816E-2,6.454376E-2,-4.740913E-3,1.1105639E-1,1.0107527E-1,-1.433454E-2,9.350279E-2,6.861428E-2,-5.5507846E-2,5.9165187E-2,-9.231647E-3,8.8445395E-2],"split_indices":[1,0,0,1,6,2,1,2,2,0,0,0,0,2,2,0,0,0,0,0,0,0,0,0,0,0,0],"split_type":[0,0,0,0,0,0,0,0,0,0,0,0,0,0,0,0,0,0,0,0,0,0,0,0,0,0,0],"sum_hessian":[6.131784E2,3.7925287E2,2.3392555E2,4.6966637E1,3.3228622E2,1.974846E2,3.6440933E1,1.9847599E1,2.711904E1,1.3213516E0,3.3096487E2,2.119085E1,1.7629376E2,2.004262E1,1.6398315E1,1.646465E1,3.3829484E0,1.1963649E1,1.5155392E1,9.735225E0,1.1455625E1,1.3673094E2,3.9562817E1,1.8204636E1,1.837984E0,1.6362597E0,1.4762055E1],"tree_param":{"num_deleted":"0","num_feature":"8","num_nodes":"27","size_leaf_vector":"1"}},{"base_weights":[-6.070298E-3,4.6095452E-1,-5.26923E-1,-2.9696262E-1,6.1826646E-1,-5.7524794E-1,3.571474E-1,1.2438224E-1,-5.392301E-1,6.7678887E-1,1.2695093E-1,-3.8473442E-1,-6.240819E-2,-5.2566208E-2,5.522203E-1,-4.827393E-2,5.49819E-2,-1.6538642E-2,-6.3096784E-2,6.872659E-2,3.0636314E-2,6.341315E-2,-2.0292046E-2,-6.1740514E-2,1.4684415E-2,6.8650626E-2,-4.60965E-2],"categories":[],"categories_nodes":[],"categories_segments":[],"categories_sizes":[],"default_left":[0,0,0,0,0,0,0,0,0,0,0,0,0,0,0,0,0,0,0,0,0,0,0,0,0,0,0],"id":27,"left_children":[1,3,5,7,9,11,13,15,17,19,21,23,-1,-1,25,-1,-1,-1,-1,-1,-1,-1,-1,-1,-1,-1,-1],"loss_changes":[2.3663478E2,6.1337585E1,1.9853226E1,9.135276E0,1.213623E1,3.820343E0,4.501314E0,8.85213E0,1.8364868E0,1.2626648E0,7.90398E0,1.1426663E1,0E0,0E0,3.1076403E0,0E0,0E0,0E0,0E0,0E0,0E0,0E0,0E0,0E0,0E0,0E0,0E0],"parents":[2147483647,0,0,1,1,2,2,3,3,4,4,5,5,6,6,7,7,8,8,9,9,10,10,11,11,14,14],"right_children":[2,4,6,8,10,12,14,16,18,20,22,24,-1,-1,26,-1,-1,-1,-1,-1,-1,-1,-1,-1,-1,-1,-1],"split_conditions":[1.074769E2,6.7E1,1.7E2,6.2706314E1,3E0,2E0,-3.2374102E-1,3.7E1,2E0,6.060606E-3,6.552292E1,8.3E1,-6.240819E-2,-5.2566208E-2,2.661E2,-4.827393E-2,5.49819E-2,-1.6538642E-2,-6.3096784E-2,6.872659E-2,3.0636314E-2,6.341315E-2,-2.0292046E-2,-6.1740514E-2,1.4684415E-2,6.8650626E-2,-4.60965E-2],"split_indices":[2,0,0,2,1,1,6,0,1,6,2,0,0,0,2,0,0,0,0,0,0,0,0,0,0,0,0],"split_type":[0,0,0,0,0,0,0,0,0,0,0,0,0,0,0,0,0,0,0,0,0,0,0,0,0,0,0],"sum_hessian":[9.708018E2,5.1191028E2,4.5889154E2,8.7835884E1,4.240744E2,4.3543896E2,2.345258E1,3.224422E1,5.5591663E1,3.786004E2,4.547399E1,9.065387E1,3.4478506E2,3.9376962E0,1.9514883E1,1.3229834E1,1.9014387E1,1.1505986E1,4.408568E1,3.673549E2,1.1245497E1,1.7557222E1,2.7916767E1,6.2942593E1,2.7711283E1,1.7515795E1,1.9990882E0],"tree_param":{"num_deleted":"0","num_feature":"8","num_nodes":"27","size_leaf_vector":"1"}},{"base_weights":[5.478207E-3,-4.7682962E-1,1.9365387E-1,4.1464514E-1,-5.7704204E-1,3.2399595E-1,-5.088135E-1,-1.7894326E-1,5.1882684E-1,-5.943284E-1,-2.5009803E-2,4.028008E-1,-1.9272538E-1,-5.754198E-1,2.936165E-1,4.638519E-2,-5.4026898E-2,5.618317E-2,-1.2132819E-2,-2.7713096E-2,-6.0664874E-2,-4.018081E-2,6.8270706E-2,-1.17842555E-2,4.584544E-2,-5.274376E-2,3.2834254E-2,3.4076743E-2,-5.956612E-2,4.8977192E-2,-4.2301804E-2],"categories":[],"categories_nodes":[],"categories_segments":[],"categories_sizes":[],"default_left":[0,0,0,0,0,0,0,0,0,0,0,0,0,0,0,0,0,0,0,0,0,0,0,0,0,0,0,0,0,0,0],"id":28,"left_children":[1,3,5,7,9,11,13,15,17,19,21,23,25,27,29,-1,-1,-1,-1,-1,-1,-1,-1,-1,-1,-1,-1,-1,-1,-1,-1],"loss_changes":[9.3124176E1,2.5966057E1,6.7743515E1,1.9284358E0,2.4594727E0,2.5453133E1,6.3636513E0,1.4526209E0,7.703719E-1,8.1424713E-1,2.652159E0,1.5730713E1,1.4673279E1,2.1939354E0,1.5490034E0,0E0,0E0,0E0,0E0,0E0,0E0,0E0,0E0,0E0,0E0,0E0,0E0,0E0,0E0,0E0,0E0],"parents":[2147483647,0,0,1,1,2,2,3,3,4,4,5,5,6,6,7,7,8,8,9,9,10,10,11,11,12,12,13,13,14,14],"right_children":[2,4,6,8,10,12,14,16,18,20,22,24,26,28,30,-1,-1,-1,-1,-1,-1,-1,-1,-1,-1,-1,-1,-1,-1,-1,-1],"split_conditions":[7.1241974E1,5.2E1,7E0,2E0,4E0,1.28E2,7.5E1,2.1E1,6E0,6.4E1,5.8157745E1,7E0,1.3706842E2,9.640769E1,2.83E2,4.638519E-2,-5.4026898E-2,5.618317E-2,-1.2132819E-2,-2.7713096E-2,-6.0664874E-2,-4.018081E-2,6.8270706E-2,-1.17842555E-2,4.584544E-2,-5.274376E-2,3.2834254E-2,3.4076743E-2,-5.956612E-2,4.8977192E-2,-4.2301804E-2],"split_indices":[2,0,1,1,1,0,0,0,1,0,2,0,2,2,3,0,0,0,0,0,0,0,0,0,0,0,0,0,0,0,0],"split_type":[0,0,0,0,0,0,0,0,0,0,0,0,0,0,0,0,0,0,0,0,0,0,0,0,0,0,0,0,0,0,0],"sum_hessian":[1.0240472E3,2.8697516E2,7.37072E2,2.868247E1,2.5829266E2,6.2216815E2,1.1490387E2,4.175339E0,2.4507132E1,2.5037576E2,7.9169126E0,5.400291E2,8.213905E1,1.0635842E2,8.545453E0,1.4003606E0,2.7749789E0,2.3079058E1,1.4280736E0,1.0239672E1,2.401361E2,5.4483714E0,2.4685411E0,5.204327E1,4.8798584E2,5.0005436E1,3.213362E1,1.9567113E0,1.0440171E2,6.957602E0,1.5878508E0],"tree_param":{"num_deleted":"0","num_feature":"8","num_nodes":"31","size_leaf_vector":"1"}},{"base_weights":[4.83019E-4,-4.397623E-1,6.794502E-1,2.1459267E-1,-5.39281E-1,8.093372E-1,2.3685275E-1,-3.0426958E-1,5.764465E-1,1.17093595E-2,-5.424285E-2,8.680905E-2,5.945767E-1,-3.6773315E-1,6.2136877E-1,-5.293219E-2,5.9976228E-2,-1.675774E-2,9.561541E-2,1.3460157E-3,9.0319335E-2,-4.9131498E-2,5.3382963E-2,-3.295837E-2,7.517757E-2],"categories":[],"categories_nodes":[],"categories_segments":[],"categories_sizes":[],"default_left":[0,0,0,0,0,0,0,0,0,0,0,0,0,0,0,0,0,0,0,0,0,0,0,0,0],"id":29,"left_children":[1,3,5,7,9,11,13,15,17,-1,-1,-1,19,21,23,-1,-1,-1,-1,-1,-1,-1,-1,-1,-1],"loss_changes":[1.7586723E2,2.335897E1,1.3112785E1,9.156174E0,7.041397E-1,1.7362595E0,1.2763828E1,4.449096E0,8.219077E0,0E0,0E0,0E0,7.4340353E0,2.6678119E0,4.3812103E0,0E0,0E0,0E0,0E0,0E0,0E0,0E0,0E0,0E0,0E0],"parents":[2147483647,0,0,1,1,2,2,3,3,4,4,5,5,6,6,7,7,8,8,12,12,13,13,14,14],"right_children":[2,4,6,8,10,12,14,16,18,-1,-1,-1,20,22,24,-1,-1,-1,-1,-1,-1,-1,-1,-1,-1],"split_conditions":[5E0,1.5E1,3.6E1,3E0,-9.508197E-1,2.2E1,7E0,5.7642285E2,1.5122614E2,1.17093595E-2,-5.424285E-2,8.680905E-2,2.5435347E2,4.8197418E2,1.768787E2,-5.293219E-2,5.9976228E-2,-1.675774E-2,9.561541E-2,1.3460157E-3,9.0319335E-2,-4.9131498E-2,5.3382963E-2,-3.295837E-2,7.517757E-2],"split_indices":[1,0,0,1,6,0,1,2,2,0,0,0,2,2,2,0,0,0,0,0,0,0,0,0,0],"split_type":[0,0,0,0,0,0,0,0,0,0,0,0,0,0,0,0,0,0,0,0,0,0,0,0,0],"sum_hessian":[5.8635803E2,3.559262E2,2.3043181E2,4.6833122E1,3.0909308E2,1.7751013E2,5.292167E1,1.9307388E1,2.7525734E1,1.302315E0,3.0779077E2,1.3699068E2,4.0519466E1,2.0590408E1,3.233126E1,1.5790855E1,3.5165343E0,9.489687E0,1.8036047E1,1.4416746E1,2.610272E1,1.8508408E1,2.0820012E0,3.7148101E0,2.8616451E1],"tree_param":{"num_deleted":"0","num_feature":"8","num_nodes":"25","size_leaf_vector":"1"}},{"base_weights":[-7.0404573E-3,4.4406813E-1,-5.134551E-1,-4.815738E-1,5.65214E-1,-5.6475645E-1,2.9419026E-1,1.8497728E-1,-5.69977E-1,6.32346E-1,6.1319787E-2,-3.8103577E-1,-6.121716E-2,6.061957E-1,-2.4938989E-1,-4.4694062E-2,6.035723E-2,-2.6756285E-2,-6.1058342E-2,2.7549619E-2,6.679721E-2,-1.8990107E-2,6.697253E-2,-6.0594447E-2,1.3513947E-2,7.024547E-2,-3.7709944E-2,-5.9977878E-2,4.9890086E-2],"categories":[],"categories_nodes":[],"categories_segments":[],"categories_sizes":[],"default_left":[0,0,0,0,0,0,0,0,0,0,0,0,0,0,0,0,0,0,0,0,0,0,0,0,0,0,0,0,0],"id":30,"left_children":[1,3,5,7,9,11,13,15,17,19,21,23,-1,25,27,-1,-1,-1,-1,-1,-1,-1,-1,-1,-1,-1,-1,-1,-1],"loss_changes":[2.1085152E2,5.5012253E1,1.818238E1,3.4661837E0,1.4578598E1,3.3312988E0,4.6672544E0,2.2360616E0,4.580059E-1,4.6623383E0,8.061108E0,1.0134459E1,0E0,1.8937378E0,3.0309763E0,0E0,0E0,0E0,0E0,0E0,0E0,0E0,0E0,0E0,0E0,0E0,0E0,0E0,0E0],"parents":[2147483647,0,0,1,1,2,2,3,3,4,4,5,5,6,6,7,7,8,8,9,9,10,10,11,11,13,13,14,14],"right_children":[2,4,6,8,10,12,14,16,18,20,22,24,-1,26,28,-1,-1,-1,-1,-1,-1,-1,-1,-1,-1,-1,-1,-1,-1],"split_conditions":[1.074769E2,5.2E1,1.64E2,3.986727E1,3E0,2E0,1.84478E2,2.8E1,8.82E1,7.6E1,1.26E2,8.3E1,-6.121716E-2,4E0,-1.6666667E-1,-4.4694062E-2,6.035723E-2,-2.6756285E-2,-6.1058342E-2,2.7549619E-2,6.679721E-2,-1.8990107E-2,6.697253E-2,-6.0594447E-2,1.3513947E-2,7.024547E-2,-3.7709944E-2,-5.9977878E-2,4.9890086E-2],"split_indices":[2,0,0,2,1,1,2,0,4,0,0,0,0,1,6,0,0,0,0,0,0,0,0,0,0,0,0,0,0],"split_type":[0,0,0,0,0,0,0,0,0,0,0,0,0,0,0,0,0,0,0,0,0,0,0,0,0,0,0,0,0],"sum_hessian":[9.209757E2,4.871505E2,4.338252E2,5.6034122E1,4.311164E2,4.081974E2,2.5627804E1,6.4335318E0,4.960059E1,3.802078E2,5.0908604E1,8.5591194E1,3.226062E2,1.6208956E1,9.418848E0,2.536569E0,3.8969626E0,6.770069E0,4.283052E1,3.5305237E1,3.4490256E2,3.65177E1,1.4390901E1,5.9494324E1,2.6096874E1,1.5023823E1,1.1851338E0,6.5501795E0,2.8686686E0],"tree_param":{"num_deleted":"0","num_feature":"8","num_nodes":"29","size_leaf_vector":"1"}},{"base_weights":[5.9647653E-3,-4.5764452E-1,1.848888E-1,4.0200505E-1,-5.5807745E-1,3.3024126E-1,-3.9709127E-1,5.1757425E-1,-3.6131404E-2,-5.7026577E-1,3.2684943E-1,4.778883E-1,4.2675016E-4,-5.9531546E-1,8.808824E-2,5.637327E-2,-1.13237435E-2,-5.0799847E-2,4.30524E-2,-5.941533E-2,-3.3182386E-2,-1.4113235E-4,5.2759655E-2,1.1841363E-2,5.7228323E-2,-4.7853947E-2,3.3185672E-2,-6.236976E-2,-2.915505E-2,6.276878E-2,-2.4369052E-2],"categories":[],"categories_nodes":[],"categories_segments":[],"categories_sizes":[],"default_left":[0,0,0,0,0,0,0,0,0,0,0,0,0,0,0,0,0,0,0,0,0,0,0,0,0,0,0,0,0,0,0],"id":31,"left_children":[1,3,5,7,9,11,13,15,17,19,21,23,25,27,29,-1,-1,-1,-1,-1,-1,-1,-1,-1,-1,-1,-1,-1,-1,-1,-1],"loss_changes":[8.141112E1,2.3820412E1,6.003231E1,1.4957757E0,2.8302994E0,2.761782E1,1.3705957E1,7.3783255E-1,1.7652315E0,1.1821747E0,2.6209593E-1,1.3225922E1,2.8158457E1,6.8821716E-1,7.6809077E0,0E0,0E0,0E0,0E0,0E0,0E0,0E0,0E0,0E0,0E0,0E0,0E0,0E0,0E0,0E0,0E0],"parents":[2147483647,0,0,1,1,2,2,3,3,4,4,5,5,6,6,7,7,8,8,9,9,10,10,11,11,12,12,13,13,14,14],"right_children":[2,4,6,8,10,12,14,16,18,20,22,24,26,28,30,-1,-1,-1,-1,-1,-1,-1,-1,-1,-1,-1,-1,-1,-1,-1,-1],"split_conditions":[7.1869125E1,5.2E1,6E0,3.8E1,5E0,9E1,3.7E1,6E0,1.0584E2,6.4885254E1,5.5514687E1,1.5E1,1.0455E2,3.1E1,2.1857735E2,5.637327E-2,-1.13237435E-2,-5.0799847E-2,4.30524E-2,-5.941533E-2,-3.3182386E-2,-1.4113235E-4,5.2759655E-2,1.1841363E-2,5.7228323E-2,-4.7853947E-2,3.3185672E-2,-6.236976E-2,-2.915505E-2,6.276878E-2,-2.4369052E-2],"split_indices":[2,0,1,0,1,0,0,1,4,2,2,0,2,0,2,0,0,0,0,0,0,0,0,0,0,0,0,0,0,0,0],"split_type":[0,0,0,0,0,0,0,0,0,0,0,0,0,0,0,0,0,0,0,0,0,0,0,0,0,0,0,0,0,0,0],"sum_hessian":[9.794181E2,2.723014E2,7.071167E2,2.8170973E1,2.4413042E2,5.661503E2,1.4096635E2,2.2147673E1,6.0233006E0,2.4116438E2,2.966035E0,3.9076764E2,1.7538268E2,9.99173E1,4.104906E1,2.0736647E1,1.4110267E0,2.9508753E0,3.0724251E0,2.1784816E2,2.3316225E1,1.5023569E0,1.4636781E0,8.1739975E1,3.0902768E2,7.154521E1,1.0383746E2,9.041611E1,9.501191E0,1.5289911E1,2.5759151E1],"tree_param":{"num_deleted":"0","num_feature":"8","num_nodes":"31","size_leaf_vector":"1"}},{"base_weights":[1.1474288E-3,-4.3169913E-1,6.4202607E-1,2.0393182E-1,-5.349546E-1,7.3868984E-1,1.0242746E-1,-2.981688E-1,5.423289E-1,-5.3824645E-2,1.4175626E-2,4.1740718E-1,7.958111E-1,-4.1283157E-1,6.8255025E-1,-5.2519448E-2,5.550715E-2,-1.6124895E-2,8.902882E-2,8.912905E-2,-5.173988E-3,8.36025E-2,6.568929E-2,-5.4748785E-2,5.47853E-2,-1.1957011E-2,7.767266E-2],"categories":[],"categories_nodes":[],"categories_segments":[],"categories_sizes":[],"default_left":[0,0,0,0,0,0,0,0,0,0,0,0,0,0,0,0,0,0,0,0,0,0,0,0,0,0,0],"id":32,"left_children":[1,3,5,7,9,11,13,15,17,-1,-1,19,21,23,25,-1,-1,-1,-1,-1,-1,-1,-1,-1,-1,-1,-1],"loss_changes":[1.5577232E2,2.2107101E1,1.1731735E1,8.242976E0,7.192154E-1,3.1881104E0,1.090881E1,4.125867E0,7.186369E0,0E0,0E0,6.951106E0,3.5447693E-1,2.8162751E0,1.3846478E0,0E0,0E0,0E0,0E0,0E0,0E0,0E0,0E0,0E0,0E0,0E0,0E0],"parents":[2147483647,0,0,1,1,2,2,3,3,4,4,5,5,6,6,7,7,8,8,11,11,12,12,13,13,14,14],"right_children":[2,4,6,8,10,12,14,16,18,-1,-1,20,22,24,26,-1,-1,-1,-1,-1,-1,-1,-1,-1,-1,-1,-1],"split_conditions":[5E0,1.5E1,4.7E1,3E0,2.4456843E3,1.84478E2,8E0,5.7642285E2,1.5122614E2,-5.3824645E-2,1.4175626E-2,1.7E1,2.4E1,4.8197418E2,1.84478E2,-5.2519448E-2,5.550715E-2,-1.6124895E-2,8.902882E-2,8.912905E-2,-5.173988E-3,8.36025E-2,6.568929E-2,-5.4748785E-2,5.47853E-2,-1.1957011E-2,7.767266E-2],"split_indices":[1,0,0,1,2,2,1,2,2,0,0,0,0,2,2,0,0,0,0,0,0,0,0,0,0,0,0],"split_type":[0,0,0,0,0,0,0,0,0,0,0,0,0,0,0,0,0,0,0,0,0,0,0,0,0,0,0],"sum_hessian":[5.5954065E2,3.3417007E2,2.2537056E2,4.6562244E1,2.8760782E2,1.9081837E2,3.4552193E1,1.8794525E1,2.776772E1,2.8641916E2,1.1886823E0,3.005866E1,1.607597E2,1.8451838E1,1.6100357E1,1.5148392E1,3.646133E0,9.366047E0,1.8401672E1,1.4506202E1,1.5552459E1,1.2077873E2,3.9980972E1,1.6560682E1,1.8911543E0,1.6633765E0,1.443698E1],"tree_param":{"num_deleted":"0","num_feature":"8","num_nodes":"27","size_leaf_vector":"1"}},{"base_weights":[-8.153369E-3,4.2592278E-1,-4.9911743E-1,-2.753595E-1,5.750789E-1,-5.515403E-1,2.9539025E-1,1.2905839E-1,-5.119877E-1,6.3658804E-1,9.607614E-2,-3.6234236E-1,-6.0142357E-2,5.957008E-1,-2.3326106E-1,-4.4918578E-2,5.094805E-2,-1.3428263E-2,-6.1139893E-2,6.478121E-2,2.6557023E-2,4.2002253E-2,-3.767942E-2,1.6910186E-2,-5.883825E-2,6.89799E-2,-3.6723237E-2,-5.84553E-2,4.889215E-2],"categories":[],"categories_nodes":[],"categories_segments":[],"categories_sizes":[],"default_left":[0,0,0,0,0,0,0,0,0,0,0,0,0,0,0,0,0,0,0,0,0,0,0,0,0,0,0,0,0],"id":33,"left_children":[1,3,5,7,9,11,13,15,17,19,21,23,-1,25,27,-1,-1,-1,-1,-1,-1,-1,-1,-1,-1,-1,-1,-1,-1],"loss_changes":[1.8619223E2,4.866246E1,1.7237984E1,7.9136543E0,1.1214432E1,3.4150238E0,4.270961E0,7.063296E0,1.8679914E0,1.239563E0,7.0099907E0,1.0049733E1,0E0,1.782764E0,2.860172E0,0E0,0E0,0E0,0E0,0E0,0E0,0E0,0E0,0E0,0E0,0E0,0E0,0E0,0E0],"parents":[2147483647,0,0,1,1,2,2,3,3,4,4,5,5,6,6,7,7,8,8,9,9,10,10,11,11,13,13,14,14],"right_children":[2,4,6,8,10,12,14,16,18,20,22,24,-1,26,28,-1,-1,-1,-1,-1,-1,-1,-1,-1,-1,-1,-1,-1,-1],"split_conditions":[1.074769E2,6.7E1,1.64E2,6.2706314E1,3E0,2E0,1.84478E2,3.7E1,2E0,6.060606E-3,8.030532E1,1.5991458E2,-6.0142357E-2,4E0,-1.6666667E-1,-4.4918578E-2,5.094805E-2,-1.3428263E-2,-6.1139893E-2,6.478121E-2,2.6557023E-2,4.2002253E-2,-3.767942E-2,1.6910186E-2,-5.883825E-2,6.89799E-2,-3.6723237E-2,-5.84553E-2,4.889215E-2],"split_indices":[2,0,0,2,1,1,2,0,1,6,2,2,0,1,6,0,0,0,0,0,0,0,0,0,0,0,0,0,0],"split_type":[0,0,0,0,0,0,0,0,0,0,0,0,0,0,0,0,0,0,0,0,0,0,0,0,0,0,0,0,0],"sum_hessian":[8.7166943E2,4.627079E2,4.0896155E2,8.1004715E1,3.817032E2,3.8393472E2,2.5026827E1,3.0068926E1,5.0935787E1,3.379746E2,4.3728565E1,8.1830475E1,3.0210425E2,1.5879398E1,9.147429E0,1.18603525E1,1.8208572E1,1.1102711E1,3.9833076E1,3.2732632E2,1.0648303E1,2.6017012E1,1.7711555E1,2.4494118E1,5.7336357E1,1.4724193E1,1.1552056E0,6.2821646E0,2.8652644E0],"tree_param":{"num_deleted":"0","num_feature":"8","num_nodes":"29","size_leaf_vector":"1"}},{"base_weights":[6.562776E-3,-4.5053738E-1,1.7428522E-1,3.768371E-1,-5.4999983E-1,3.1021765E-1,-3.8206816E-1,-1.8319961E-1,4.7854137E-1,-5.689251E-1,-2.3078641E-3,4.5204863E-1,-1.2630438E-3,-5.358223E-1,2.0976754E-1,4.2658314E-2,-5.2385982E-2,1.1331193E-2,5.731551E-2,-2.4030821E-2,-5.8329552E-2,-3.7046928E-2,6.482897E-2,-1.907845E-2,5.0119836E-2,4.616502E-2,-3.271466E-2,-2.5001857E-2,-6.117267E-2,6.295776E-2,-3.5634685E-2],"categories":[],"categories_nodes":[],"categories_segments":[],"categories_sizes":[],"default_left":[0,0,0,0,0,0,0,0,0,0,0,0,0,0,0,0,0,0,0,0,0,0,0,0,0,0,0,0,0,0,0],"id":34,"left_children":[1,3,5,7,9,11,13,15,17,19,21,23,25,27,29,-1,-1,-1,-1,-1,-1,-1,-1,-1,-1,-1,-1,-1,-1,-1,-1],"loss_changes":[7.178272E1,2.0890572E1,5.1918312E1,1.657748E0,2.3284988E0,2.434261E1,1.2391432E1,1.2537522E0,7.507682E-1,8.858261E-1,2.2789042E0,1.2057823E1,2.6308504E1,2.1768246E0,7.0084753E0,0E0,0E0,0E0,0E0,0E0,0E0,0E0,0E0,0E0,0E0,0E0,0E0,0E0,0E0,0E0,0E0],"parents":[2147483647,0,0,1,1,2,2,3,3,4,4,5,5,6,6,7,7,8,8,9,9,10,10,11,11,12,12,13,13,14,14],"right_children":[2,4,6,8,10,12,14,16,18,20,22,24,26,28,30,-1,-1,-1,-1,-1,-1,-1,-1,-1,-1,-1,-1,-1,-1,-1,-1],"split_conditions":[7.1241974E1,5.2E1,6E0,2E0,4E0,9E1,4.8E1,2.1E1,3.8675674E1,6.4E1,5.8157745E1,5E0,-3.1914893E-1,2.0897345E2,8E0,4.2658314E-2,-5.2385982E-2,1.1331193E-2,5.731551E-2,-2.4030821E-2,-5.8329552E-2,-3.7046928E-2,6.482897E-2,-1.907845E-2,5.0119836E-2,4.616502E-2,-3.271466E-2,-2.5001857E-2,-6.117267E-2,6.295776E-2,-3.5634685E-2],"split_indices":[2,0,1,1,1,0,0,0,2,0,2,0,6,2,1,0,0,0,0,0,0,0,0,0,0,0,0,0,0,0,0],"split_type":[0,0,0,0,0,0,0,0,0,0,0,0,0,0,0,0,0,0,0,0,0,0,0,0,0,0,0,0,0,0,0],"sum_hessian":[9.342809E2,2.5033835E2,6.8394257E2,2.6565502E1,2.2377284E2,5.500039E2,1.3393866E2,3.9597507E0,2.2605751E1,2.1626128E2,7.511569E0,3.7761E2,1.7239389E2,1.0639321E2,2.7545452E1,1.3288609E0,2.6308897E0,5.1033487E0,1.7502401E1,9.803434E0,2.0645784E2,5.0719914E0,2.4395776E0,2.6615955E1,3.5099405E2,7.1050705E1,1.01343185E2,2.3227674E1,8.3165535E1,1.5752132E1,1.1793319E1],"tree_param":{"num_deleted":"0","num_feature":"8","num_nodes":"31","size_leaf_vector":"1"}},{"base_weights":[1.8316065E-3,-4.2344713E-1,6.0845524E-1,1.939846E-1,-5.307777E-1,7.7116066E-1,3.1308454E-1,-2.9193804E-1,5.1138216E-1,1.4536467E-2,-5.344071E-1,5.210723E-1,7.949065E-1,-1.6365048E-1,6.431127E-1,5.28238E-2,-5.2152265E-2,-5.2008117E-3,9.035511E-2,-3.3839237E-2,-5.3807743E-2,8.445293E-2,-1.9085312E-2,9.4727986E-2,7.383835E-2,-4.508994E-2,5.4187834E-2,7.040569E-2,-2.0910772E-3],"categories":[],"categories_nodes":[],"categories_segments":[],"categories_sizes":[],"default_left":[0,0,0,0,0,0,0,0,0,0,0,0,0,0,0,0,0,0,0,0,0,0,0,0,0,0,0,0,0],"id":35,"left_children":[1,3,5,7,9,11,13,15,17,-1,19,21,23,25,27,-1,-1,-1,-1,-1,-1,-1,-1,-1,-1,-1,-1,-1,-1],"loss_changes":[1.378893E2,2.0925514E1,1.0344742E1,7.438865E0,7.352295E-1,4.2523193E-1,1.2680243E1,3.9117403E0,6.444019E0,0E0,9.811401E-3,3.6522865E0,3.9600372E-1,7.0319853E0,1.9342232E0,0E0,0E0,0E0,0E0,0E0,0E0,0E0,0E0,0E0,0E0,0E0,0E0,0E0,0E0],"parents":[2147483647,0,0,1,1,2,2,3,3,4,4,5,5,6,6,7,7,8,8,10,10,11,11,12,12,13,13,14,14],"right_children":[2,4,6,8,10,12,14,16,18,-1,20,22,24,26,28,-1,-1,-1,-1,-1,-1,-1,-1,-1,-1,-1,-1,-1,-1],"split_conditions":[5E0,1.5E1,2.5E1,3E0,-9.508197E-1,1.6399329E2,2.5982816E2,-1.0769231E0,1.6841379E2,1.4536467E-2,1.8E1,1.7E1,7E0,8E0,9.1E1,5.28238E-2,-5.2152265E-2,-5.2008117E-3,9.035511E-2,-3.3839237E-2,-5.3807743E-2,8.445293E-2,-1.9085312E-2,9.4727986E-2,7.383835E-2,-4.508994E-2,5.4187834E-2,7.040569E-2,-2.0910772E-3],"split_indices":[1,0,0,1,6,2,2,6,2,0,0,0,1,1,0,0,0,0,0,0,0,0,0,0,0,0,0,0,0],"split_type":[0,0,0,0,0,0,0,0,0,0,0,0,0,0,0,0,0,0,0,0,0,0,0,0,0,0,0,0,0],"sum_hessian":[5.324887E2,3.1321124E2,2.1927748E2,4.6264107E1,2.6694714E2,1.40353E2,7.8924484E1,1.8310972E1,2.7953135E1,1.2167691E0,2.6573038E2,1.4160444E1,1.2619255E2,3.249241E1,4.643207E1,3.720147E0,1.4590825E1,1.1828166E1,1.612497E1,6.5972514E0,2.5913312E2,9.608602E0,4.5518427E0,2.9880953E1,9.63116E1,2.3347582E1,9.144826E0,4.2473553E1,3.9585195E0],"tree_param":{"num_deleted":"0","num_feature":"8","num_nodes":"29","size_leaf_vector":"1"}},{"base_weights":[-9.422916E-3,4.121383E-1,-4.881599E-1,-4.5761836E-1,5.2616817E-1,-5.4778826E-1,1.8581413E-1,1.8641005E-1,-5.468083E-1,5.957494E-1,4.1396525E-2,-5.8950752E-2,-3.6455914E-1,-3.8765785E-1,5.206547E-1,-4.240399E-2,5.7967294E-2,-2.4551166E-2,-5.8972936E-2,2.5914399E-2,6.320538E-2,-2.0123998E-2,6.301441E-2,1.0606899E-2,-5.973285E-2,4.8262323E-4,-5.1809527E-2,6.781567E-2,-4.892845E-2],"categories":[],"categories_nodes":[],"categories_segments":[],"categories_sizes":[],"default_left":[0,0,0,0,0,0,0,0,0,0,0,0,0,0,0,0,0,0,0,0,0,0,0,0,0,0,0,0,0],"id":36,"left_children":[1,3,5,7,9,11,13,15,17,19,21,-1,23,25,27,-1,-1,-1,-1,-1,-1,-1,-1,-1,-1,-1,-1,-1,-1],"loss_changes":[1.6659218E2,4.377552E1,1.5634865E1,3.0551758E0,1.3081207E1,2.5014267E0,6.377808E0,1.926231E0,4.425068E-1,3.9874039E0,7.2470365E0,0E0,7.569996E0,6.388365E-1,3.6297803E0,0E0,0E0,0E0,0E0,0E0,0E0,0E0,0E0,0E0,0E0,0E0,0E0,0E0,0E0],"parents":[2147483647,0,0,1,1,2,2,3,3,4,4,5,5,6,6,7,7,8,8,9,9,10,10,12,12,13,13,14,14],"right_children":[2,4,6,8,10,12,14,16,18,20,22,-1,24,26,28,-1,-1,-1,-1,-1,-1,-1,-1,-1,-1,-1,-1,-1,-1],"split_conditions":[1.074769E2,5.2E1,1.49E2,3.986727E1,3E0,8.3E1,-2.2222222E-1,2.8E1,8.82E1,7.6E1,1.26E2,-5.8950752E-2,2E0,1.4654053E2,2.661E2,-4.240399E-2,5.7967294E-2,-2.4551166E-2,-5.8972936E-2,2.5914399E-2,6.320538E-2,-2.0123998E-2,6.301441E-2,1.0606899E-2,-5.973285E-2,4.8262323E-4,-5.1809527E-2,6.781567E-2,-4.892845E-2],"split_indices":[2,0,0,2,1,0,6,0,4,0,0,0,1,2,2,0,0,0,0,0,0,0,0,0,0,0,0,0,0],"split_type":[0,0,0,0,0,0,0,0,0,0,0,0,0,0,0,0,0,0,0,0,0,0,0,0,0,0,0,0,0],"sum_hessian":[8.234649E2,4.3795456E2,3.8551038E2,5.0413692E1,3.8754086E2,3.5434747E2,3.1162891E1,5.999815E0,4.441388E1,3.386974E2,4.88435E1,2.868236E2,6.752386E1,1.1429747E1,1.9733145E1,2.3201134E0,3.6797016E0,6.3759785E0,3.80379E1,3.376598E1,3.049314E2,3.5054794E1,1.3788703E1,2.2525223E1,4.4998634E1,3.0912433E0,8.338503E0,1.73551E1,2.378045E0],"tree_param":{"num_deleted":"0","num_feature":"8","num_nodes":"29","size_leaf_vector":"1"}},{"base_weights":[7.1549113E-3,-4.3303967E-1,1.675224E-1,3.6747953E-1,-5.3293264E-1,2.7783656E-1,-4.644137E-1,5.414628E-1,7.386368E-2,-5.55271E-1,1.6932113E-2,3.3411178E-1,-2.714515E-1,-5.505064E-1,1.4082952E-1,6.128822E-2,1.0456299E-2,-5.206118E-2,3.7414353E-2,-2.8721953E-2,-5.770538E-2,-3.530589E-2,5.080383E-2,3.7836414E-2,-2.004105E-2,-4.956093E-2,4.32035E-2,3.30235E-2,-5.7448495E-2,4.819638E-2,-4.105111E-2],"categories":[],"categories_nodes":[],"categories_segments":[],"categories_sizes":[],"default_left":[0,0,0,0,0,0,0,0,0,0,0,0,0,0,0,0,0,0,0,0,0,0,0,0,0,0,0,0,0,0,0],"id":37,"left_children":[1,3,5,7,9,11,13,15,17,19,21,23,25,27,29,-1,-1,-1,-1,-1,-1,-1,-1,-1,-1,-1,-1,-1,-1,-1,-1],"loss_changes":[6.2976562E1,1.9245682E1,4.571044E1,1.340338E0,2.6159134E0,1.7317764E1,5.1606483E0,4.6040773E-1,2.1961865E0,1.0250931E0,1.8609849E0,1.20438385E1,8.4681015E0,1.9976349E0,2.6324625E0,0E0,0E0,0E0,0E0,0E0,0E0,0E0,0E0,0E0,0E0,0E0,0E0,0E0,0E0,0E0,0E0],"parents":[2147483647,0,0,1,1,2,2,3,3,4,4,5,5,6,6,7,7,8,8,9,9,10,10,11,11,12,12,13,13,14,14],"right_children":[2,4,6,8,10,12,14,16,18,20,22,24,26,28,30,-1,-1,-1,-1,-1,-1,-1,-1,-1,-1,-1,-1,-1,-1,-1,-1],"split_conditions":[7.1869125E1,5.2E1,7E0,2.9E1,4E0,1.49E2,5.8E1,2E0,3.986727E1,7.2E1,5.8157745E1,1E0,1.84478E2,9.640769E1,9E0,6.128822E-2,1.0456299E-2,-5.206118E-2,3.7414353E-2,-2.8721953E-2,-5.770538E-2,-3.530589E-2,5.080383E-2,3.7836414E-2,-2.004105E-2,-4.956093E-2,4.32035E-2,3.30235E-2,-5.7448495E-2,4.819638E-2,-4.105111E-2],"split_indices":[2,0,1,0,1,0,0,7,2,0,2,5,2,2,1,0,0,0,0,0,0,0,0,0,0,0,0,0,0,0,0],"split_type":[0,0,0,0,0,0,0,0,0,0,0,0,0,0,0,0,0,0,0,0,0,0,0,0,0,0,0,0,0,0,0],"sum_hessian":[8.9008136E2,2.3722353E2,6.5285785E2,2.6020721E1,2.112028E2,5.563064E2,9.655149E1,1.5808948E1,1.0211774E1,2.0294814E2,8.254663E0,5.0496396E2,5.134242E1,8.460702E1,1.1944471E1,1.3241568E1,2.56738E0,3.1808226E0,7.0309515E0,1.6318895E1,1.8662924E2,4.868165E0,3.3864982E0,4.6662488E2,3.8339073E1,3.9160023E1,1.2182393E1,1.9038968E0,8.2703125E1,7.4566236E0,4.4878483E0],"tree_param":{"num_deleted":"0","num_feature":"8","num_nodes":"31","size_leaf_vector":"1"}},{"base_weights":[2.748363E-3,-4.1513687E-1,5.791797E-1,1.9106981E-1,-5.269277E-1,6.958286E-1,1.8878625E-1,-2.8350478E-1,4.9062312E-1,-5.3074855E-1,1.6795384E-2,5.1580846E-1,7.5752616E-1,-3.451664E-1,5.12721E-1,-5.173945E-2,5.0265934E-2,-4.6753597E-2,6.946464E-2,-3.4058902E-2,-5.3465147E-2,7.763936E-2,1.7061575E-3,8.961919E-2,7.101514E-2,-4.772176E-2,4.724299E-2,-4.7172725E-2,6.1349757E-2],"categories":[],"categories_nodes":[],"categories_segments":[],"categories_sizes":[],"default_left":[0,0,0,0,0,0,0,0,0,0,0,0,0,0,0,0,0,0,0,0,0,0,0,0,0,0,0,0,0],"id":38,"left_children":[1,3,5,7,9,11,13,15,17,19,-1,21,23,25,27,-1,-1,-1,-1,-1,-1,-1,-1,-1,-1,-1,-1,-1,-1],"loss_changes":[1.22353065E2,2.005632E1,9.58989E0,6.761217E0,7.499466E-1,1.4306335E0,8.908792E0,3.6910048E0,5.978852E0,1.7929077E-3,0E0,5.8340845E0,1.5185547E-1,2.3480132E0,3.4465532E0,0E0,0E0,0E0,0E0,0E0,0E0,0E0,0E0,0E0,0E0,0E0,0E0,0E0,0E0],"parents":[2147483647,0,0,1,1,2,2,3,3,4,4,5,5,6,6,7,7,8,8,9,9,11,11,12,12,13,13,14,14],"right_children":[2,4,6,8,10,12,14,16,18,20,-1,22,24,26,28,-1,-1,-1,-1,-1,-1,-1,-1,-1,-1,-1,-1,-1,-1],"split_conditions":[5E0,1.5E1,3.6E1,3E0,2.4456843E3,2.329478E2,7E0,5.7642285E2,1.1419879E2,1.8E1,1.6795384E-2,1.9E1,7E0,1E0,1.480451E2,-5.173945E-2,5.0265934E-2,-4.6753597E-2,6.946464E-2,-3.4058902E-2,-5.3465147E-2,7.763936E-2,1.7061575E-3,8.961919E-2,7.101514E-2,-4.772176E-2,4.724299E-2,-4.7172725E-2,6.1349757E-2],"split_indices":[1,0,0,1,2,2,1,2,2,0,0,0,1,5,2,0,0,0,0,0,0,0,0,0,0,0,0,0,0],"split_type":[0,0,0,0,0,0,0,0,0,0,0,0,0,0,0,0,0,0,0,0,0,0,0,0,0,0,0,0,0],"sum_hessian":[5.0593936E2,2.934685E2,2.1247086E2,4.558206E1,2.4788644E2,1.6298795E2,4.9482914E1,1.7658976E1,2.7923086E1,2.467658E2,1.1206515E0,4.3991234E1,1.1899671E2,1.8659794E1,3.0823118E1,1.3873407E1,3.7855678E0,4.6752095E0,2.3247875E1,6.738057E0,2.4002773E2,2.8528814E1,1.5462418E1,2.5739643E1,9.3257065E1,1.6423523E1,2.2362714E0,2.5204887E0,2.830263E1],"tree_param":{"num_deleted":"0","num_feature":"8","num_nodes":"29","size_leaf_vector":"1"}},{"base_weights":[-1.0443978E-2,4.0340918E-1,-4.7333702E-1,-2.5231943E-1,5.4724663E-1,-5.354032E-1,1.9042027E-1,1.3435715E-1,-4.860682E-1,6.083429E-1,1.00610025E-1,-5.818171E-2,-3.400504E-1,-3.432276E-1,5.0561595E-1,-4.2354602E-2,4.7997333E-2,-1.0410313E-2,-5.961026E-2,2.9677024E-2,6.2122572E-2,-1.6622383E-2,6.460258E-2,1.3877927E-2,-5.9019037E-2,5.749966E-3,-5.0578166E-2,6.5346375E-2,-4.735027E-2],"categories":[],"categories_nodes":[],"categories_segments":[],"categories_sizes":[],"default_left":[0,0,0,0,0,0,0,0,0,0,0,0,0,0,0,0,0,0,0,0,0,0,0,0,0,0,0,0,0],"id":39,"left_children":[1,3,5,7,9,11,13,15,17,19,21,-1,23,25,27,-1,-1,-1,-1,-1,-1,-1,-1,-1,-1,-1,-1,-1,-1],"loss_changes":[1.4950287E2,3.9001404E1,1.52775955E1,6.8269186E0,9.168488E0,2.8589401E0,5.5959797E0,5.7889314E0,1.9066277E0,1.0091248E0,6.205098E0,0E0,8.12216E0,8.476393E-1,3.3017945E0,0E0,0E0,0E0,0E0,0E0,0E0,0E0,0E0,0E0,0E0,0E0,0E0,0E0,0E0],"parents":[2147483647,0,0,1,1,2,2,3,3,4,4,5,5,6,6,7,7,8,8,9,9,10,10,12,12,13,13,14,14],"right_children":[2,4,6,8,10,12,14,16,18,20,22,-1,24,26,28,-1,-1,-1,-1,-1,-1,-1,-1,-1,-1,-1,-1,-1,-1],"split_conditions":[1.0628855E2,6.7E1,1.49E2,6.2706314E1,3E0,8.3E1,-2.2222222E-1,3.7E1,2E0,7.6E1,1.26E2,-5.818171E-2,2E0,1.4654053E2,2.661E2,-4.2354602E-2,4.7997333E-2,-1.0410313E-2,-5.961026E-2,2.9677024E-2,6.2122572E-2,-1.6622383E-2,6.460258E-2,1.3877927E-2,-5.9019037E-2,5.749966E-3,-5.0578166E-2,6.5346375E-2,-4.735027E-2],"split_indices":[2,0,0,2,1,0,6,0,1,0,0,0,1,2,2,0,0,0,0,0,0,0,0,0,0,0,0,0,0],"split_type":[0,0,0,0,0,0,0,0,0,0,0,0,0,0,0,0,0,0,0,0,0,0,0,0,0,0,0,0,0],"sum_hessian":[7.7841284E2,4.1104413E2,3.673687E2,7.380886E1,3.3723526E2,3.3613135E2,3.1237371E1,2.7968107E1,4.5840755E1,2.9633676E2,4.089849E1,2.7000305E2,6.61283E1,1.1566151E1,1.967122E1,1.0612169E1,1.7355938E1,1.0687406E1,3.515335E1,1.2720739E1,2.8361603E2,2.7929682E1,1.2968807E1,2.284415E1,4.3284153E1,3.5243118E0,8.041839E0,1.73795E1,2.2917206E0],"tree_param":{"num_deleted":"0","num_feature":"8","num_nodes":"29","size_leaf_vector":"1"}},{"base_weights":[7.731363E-3,-4.620508E-1,1.4708166E-1,4.8867244E-1,-5.4679394E-1,2.4372151E-1,-4.500928E-1,-4.954856E-3,5.546397E-1,-8.635516E-2,-5.597261E-1,3.447373E-1,-1.1046388E-1,-5.385186E-1,1.4328079E-1,1.2360421E-2,5.967727E-2,-4.774217E-2,3.5338566E-2,-5.647999E-2,3.9728065E-3,-8.136096E-4,4.2684387E-2,-3.1202098E-2,5.805133E-2,3.15121E-2,-5.6309212E-2,4.6682797E-2,-3.921849E-2],"categories":[],"categories_nodes":[],"categories_segments":[],"categories_sizes":[],"default_left":[0,0,0,0,0,0,0,0,0,0,0,0,0,0,0,0,0,0,0,0,0,0,0,0,0,0,0,0,0],"id":40,"left_children":[1,3,5,7,9,11,13,-1,15,17,19,21,23,25,27,-1,-1,-1,-1,-1,-1,-1,-1,-1,-1,-1,-1,-1,-1],"loss_changes":[5.571496E1,1.595388E1,3.7987244E1,6.119878E-1,1.0189552E0,2.027296E1,4.892317E0,0E0,1.9405794E-1,1.2141359E0,5.521469E-1,1.2760357E1,1.7766087E1,1.8572388E0,2.3819518E0,0E0,0E0,0E0,0E0,0E0,0E0,0E0,0E0,0E0,0E0,0E0,0E0,0E0,0E0],"parents":[2147483647,0,0,1,1,2,2,3,3,4,4,5,5,6,6,8,8,9,9,10,10,11,11,12,12,13,13,14,14],"right_children":[2,4,6,8,10,12,14,-1,16,18,20,22,24,26,28,-1,-1,-1,-1,-1,-1,-1,-1,-1,-1,-1,-1,-1,-1],"split_conditions":[6.399E1,3.8E1,7E0,2E0,5.2E1,1.1E2,5.8E1,-4.954856E-3,2.888889E1,1.0584E2,5E0,1.3E1,1.84478E2,9.640769E1,9E0,1.2360421E-2,5.967727E-2,-4.774217E-2,3.5338566E-2,-5.647999E-2,3.9728065E-3,-8.136096E-4,4.2684387E-2,-3.1202098E-2,5.805133E-2,3.15121E-2,-5.6309212E-2,4.6682797E-2,-3.921849E-2],"split_indices":[2,0,1,1,0,0,0,0,2,4,1,0,2,2,1,0,0,0,0,0,0,0,0,0,0,0,0,0,0],"split_type":[0,0,0,0,0,0,0,0,0,0,0,0,0,0,0,0,0,0,0,0,0,0,0,0,0,0,0,0,0],"sum_hessian":[8.490361E2,1.9370291E2,6.553331E2,1.5462659E1,1.7824025E2,5.645627E2,9.077046E1,1.7154393E0,1.374722E1,5.0791674E0,1.7316109E2,4.3929874E2,1.25263954E2,7.907846E1,1.1692001E1,1.5743833E0,1.2172836E1,2.643015E0,2.4361525E0,1.7176508E2,1.3960108E0,8.309185E1,3.5620688E2,9.740073E1,2.7863224E1,1.8818752E0,7.719659E1,7.368112E0,4.323889E0],"tree_param":{"num_deleted":"0","num_feature":"8","num_nodes":"29","size_leaf_vector":"1"}},{"base_weights":[3.2569692E-3,-4.071111E-1,5.531808E-1,1.8890049E-1,-5.2339685E-1,7.1127677E-1,2.7494723E-1,-2.7146864E-1,4.679564E-1,1.6562706E-2,-5.2758193E-1,4.6867296E-1,7.3572695E-1,-1.6758674E-1,5.793896E-1,4.928492E-2,-5.1225472E-2,-4.5960125E-2,6.547307E-2,-3.1538665E-2,-5.317996E-2,7.8357145E-2,-2.0879159E-2,8.6802535E-2,6.816745E-2,-3.831424E-2,6.460284E-2,6.374886E-2,-3.4573067E-3],"categories":[],"categories_nodes":[],"categories_segments":[],"categories_sizes":[],"default_left":[0,0,0,0,0,0,0,0,0,0,0,0,0,0,0,0,0,0,0,0,0,0,0,0,0,0,0,0,0],"id":41,"left_children":[1,3,5,7,9,11,13,15,17,-1,19,21,23,25,27,-1,-1,-1,-1,-1,-1,-1,-1,-1,-1,-1,-1,-1,-1],"loss_changes":[1.088841E2,1.9249187E1,8.873936E0,6.0164866E0,7.548485E-1,4.3132782E-1,1.0381659E1,3.552985E0,5.3093047E0,0E0,3.8391113E-2,3.3069856E0,2.4576187E-1,5.8400087E0,1.6432276E0,0E0,0E0,0E0,0E0,0E0,0E0,0E0,0E0,0E0,0E0,0E0,0E0,0E0,0E0],"parents":[2147483647,0,0,1,1,2,2,3,3,4,4,5,5,6,6,7,7,8,8,10,10,11,11,12,12,13,13,14,14],"right_children":[2,4,6,8,10,12,14,16,18,-1,20,22,24,26,28,-1,-1,-1,-1,-1,-1,-1,-1,-1,-1,-1,-1,-1,-1],"split_conditions":[5E0,1.5E1,2.5E1,3E0,-9.508197E-1,1.6399329E2,2.5982816E2,-1.0769231E0,1.1419879E2,1.6562706E-2,1.8E1,1.7E1,7E0,9E0,9.1E1,4.928492E-2,-5.1225472E-2,-4.5960125E-2,6.547307E-2,-3.1538665E-2,-5.317996E-2,7.8357145E-2,-2.0879159E-2,8.6802535E-2,6.816745E-2,-3.831424E-2,6.460284E-2,6.374886E-2,-3.4573067E-3],"split_indices":[1,0,0,1,6,2,2,6,2,0,0,0,1,1,0,0,0,0,0,0,0,0,0,0,0,0,0,0,0],"split_type":[0,0,0,0,0,0,0,0,0,0,0,0,0,0,0,0,0,0,0,0,0,0,0,0,0,0,0,0,0],"sum_hessian":[4.804921E2,2.7530887E2,2.0518323E2,4.4843464E1,2.304654E2,1.2984642E2,7.5336815E1,1.6933996E1,2.7909466E1,1.1584983E0,2.293069E2,1.3734658E1,1.16111755E2,3.0887957E1,4.4448856E1,3.805982E0,1.3128014E1,4.4330997E0,2.3476366E1,5.9457707E0,2.2336113E2,9.269427E0,4.4652305E0,2.9311138E1,8.680062E1,2.483687E1,6.051086E0,4.05713E1,3.877558E0],"tree_param":{"num_deleted":"0","num_feature":"8","num_nodes":"29","size_leaf_vector":"1"}},{"base_weights":[-1.1618529E-2,3.869294E-1,-4.6825626E-1,-4.394615E-1,4.961242E-1,-5.200359E-1,2.6260036E-1,1.8593714E-1,-5.27672E-1,5.693142E-1,2.4981111E-2,-3.204817E-1,-5.7682205E-2,-2.9922053E-1,4.9226555E-1,-3.9758943E-2,5.492558E-2,-2.4262082E-2,-5.792296E-2,2.4702903E-2,6.072923E-2,5.133872E-2,-2.2391668E-2,2.136231E-2,-5.6544345E-2,2.2946622E-2,-5.2722108E-2,6.2688105E-2,-4.2018753E-2],"categories":[],"categories_nodes":[],"categories_segments":[],"categories_sizes":[],"default_left":[0,0,0,0,0,0,0,0,0,0,0,0,0,0,0,0,0,0,0,0,0,0,0,0,0,0,0,0,0],"id":42,"left_children":[1,3,5,7,9,11,13,15,17,19,21,23,-1,25,27,-1,-1,-1,-1,-1,-1,-1,-1,-1,-1,-1,-1,-1,-1],"loss_changes":[1.3408429E2,3.5719154E1,1.3129959E1,2.6604557E0,1.1984863E1,3.4522781E0,3.1640832E0,1.5923616E0,4.6153164E-1,3.535843E0,5.92974E0,9.717871E0,0E0,1.0137327E0,2.3483486E0,0E0,0E0,0E0,0E0,0E0,0E0,0E0,0E0,0E0,0E0,0E0,0E0,0E0,0E0],"parents":[2147483647,0,0,1,1,2,2,3,3,4,4,5,5,6,6,7,7,8,8,9,9,10,10,11,11,13,13,14,14],"right_children":[2,4,6,8,10,12,14,16,18,20,22,24,-1,26,28,-1,-1,-1,-1,-1,-1,-1,-1,-1,-1,-1,-1,-1,-1],"split_conditions":[1.074769E2,5.2E1,1.64E2,3.986727E1,3E0,2E0,-2.4E-1,2.8E1,5.6248314E1,7.6E1,6.102927E1,1.5991458E2,-5.7682205E-2,1.4654053E2,2.661E2,-3.9758943E-2,5.492558E-2,-2.4262082E-2,-5.792296E-2,2.4702903E-2,6.072923E-2,5.133872E-2,-2.2391668E-2,2.136231E-2,-5.6544345E-2,2.2946622E-2,-5.2722108E-2,6.2688105E-2,-4.2018753E-2],"split_indices":[2,0,0,2,1,1,6,0,2,0,2,2,0,2,2,0,0,0,0,0,0,0,0,0,0,0,0,0,0],"split_type":[0,0,0,0,0,0,0,0,0,0,0,0,0,0,0,0,0,0,0,0,0,0,0,0,0,0,0,0,0],"sum_hessian":[7.347637E2,3.9241833E2,3.4234534E2,4.5447235E1,3.469711E2,3.1996494E2,2.2380384E1,5.480868E0,3.996637E1,3.0013766E2,4.6833416E1,7.23524E1,2.4761255E2,6.4062276E0,1.5974156E1,2.0668962E0,3.4139717E0,6.995501E0,3.2970867E1,3.243091E1,2.6770676E2,1.54512205E1,3.1382196E1,2.2789978E1,4.9562424E1,1.9283497E0,4.4778776E0,1.4193187E1,1.7809697E0],"tree_param":{"num_deleted":"0","num_feature":"8","num_nodes":"29","size_leaf_vector":"1"}},{"base_weights":[8.332352E-3,-4.522794E-1,1.4029048E-1,4.7004405E-1,-5.371953E-1,2.4993758E-1,-3.4517637E-1,-5.4768617E-3,5.3768086E-1,-7.468948E-2,-5.5089647E-1,3.9359713E-1,-4.444693E-2,-5.4801434E-1,9.558426E-2,1.0783228E-2,5.82241E-2,-4.624968E-2,3.4762796E-2,-5.5635232E-2,4.8133745E-3,-1.8107055E-2,4.404704E-2,-3.04947E-2,4.475451E-2,-5.809039E-2,-2.3624215E-2,5.723862E-2,-2.1453967E-2],"categories":[],"categories_nodes":[],"categories_segments":[],"categories_sizes":[],"default_left":[0,0,0,0,0,0,0,0,0,0,0,0,0,0,0,0,0,0,0,0,0,0,0,0,0,0,0,0,0],"id":43,"left_children":[1,3,5,7,9,11,13,-1,15,17,19,21,23,25,27,-1,-1,-1,-1,-1,-1,-1,-1,-1,-1,-1,-1,-1,-1],"loss_changes":[4.930147E1,1.4399635E1,3.364517E1,5.889344E-1,1.0099525E0,2.1792057E1,1.0474773E1,0E0,2.0642138E-1,1.1318431E0,5.527649E-1,9.402977E0,2.1892897E1,6.829376E-1,5.6814947E0,0E0,0E0,0E0,0E0,0E0,0E0,0E0,0E0,0E0,0E0,0E0,0E0,0E0,0E0],"parents":[2147483647,0,0,1,1,2,2,3,3,4,4,5,5,6,6,8,8,9,9,10,10,11,11,12,12,13,13,14,14],"right_children":[2,4,6,8,10,12,14,-1,16,18,20,22,24,26,28,-1,-1,-1,-1,-1,-1,-1,-1,-1,-1,-1,-1,-1,-1],"split_conditions":[6.399E1,3.8E1,6E0,2E0,5.2E1,9E1,3.7E1,-5.4768617E-3,2.888889E1,1.0584E2,5E0,5E0,1.4654053E2,3.1E1,2.1857735E2,1.0783228E-2,5.82241E-2,-4.624968E-2,3.4762796E-2,-5.5635232E-2,4.8133745E-3,-1.8107055E-2,4.404704E-2,-3.04947E-2,4.475451E-2,-5.809039E-2,-2.3624215E-2,5.723862E-2,-2.1453967E-2],"split_indices":[2,0,1,1,0,0,0,0,2,4,1,0,2,0,2,0,0,0,0,0,0,0,0,0,0,0,0,0,0],"split_type":[0,0,0,0,0,0,0,0,0,0,0,0,0,0,0,0,0,0,0,0,0,0,0,0,0,0,0,0,0],"sum_hessian":[8.090829E2,1.796324E2,6.2945044E2,1.4761666E1,1.6487073E2,5.138728E2,1.1557767E2,1.7069812E0,1.3054685E1,4.9291697E0,1.5994156E2,3.451182E2,1.6875461E2,7.8985306E1,3.6592358E1,1.5474235E0,1.1507261E1,2.519976E0,2.4091938E0,1.585686E2,1.3729591E0,2.5811026E1,3.1930716E2,1.10583176E2,5.817143E1,7.066723E1,8.318077E0,1.4087609E1,2.250475E1],"tree_param":{"num_deleted":"0","num_feature":"8","num_nodes":"29","size_leaf_vector":"1"}},{"base_weights":[3.9364244E-3,-3.9957798E-1,5.3124774E-1,3.4149566E-1,-4.9279118E-1,6.4502203E-1,1.5958676E-1,-1.3582219E-1,6.311448E-1,-5.1135033E-1,8.563789E-2,4.7215518E-1,7.07038E-1,-2.0063518E-1,5.6732017E-1,-4.9080998E-2,7.0188604E-2,-4.1119024E-2,8.293845E-2,-5.1989168E-2,2.713871E-2,6.0026813E-2,-4.2522527E-2,7.210013E-2,5.779037E-4,8.273714E-2,6.61067E-2,-3.0209323E-2,7.6523125E-2,-1.0604972E-2,6.696978E-2],"categories":[],"categories_nodes":[],"categories_segments":[],"categories_sizes":[],"default_left":[0,0,0,0,0,0,0,0,0,0,0,0,0,0,0,0,0,0,0,0,0,0,0,0,0,0,0,0,0,0,0],"id":44,"left_children":[1,3,5,7,9,11,13,15,17,19,21,23,25,27,29,-1,-1,-1,-1,-1,-1,-1,-1,-1,-1,-1,-1,-1,-1,-1,-1],"loss_changes":[9.743326E1,1.8087872E1,8.290806E0,4.1744947E0,2.5218582E0,1.2919235E0,7.1421814E0,3.9105573E0,4.180764E0,1.6373787E0,2.3671193E0,4.9920425E0,5.9337616E-2,2.7932892E0,1.6364241E0,0E0,0E0,0E0,0E0,0E0,0E0,0E0,0E0,0E0,0E0,0E0,0E0,0E0,0E0,0E0,0E0],"parents":[2147483647,0,0,1,1,2,2,3,3,4,4,5,5,6,6,7,7,8,8,9,9,10,10,11,11,12,12,13,13,14,14],"right_children":[2,4,6,8,10,12,14,16,18,20,22,24,26,28,30,-1,-1,-1,-1,-1,-1,-1,-1,-1,-1,-1,-1,-1,-1,-1,-1],"split_conditions":[5E0,8E0,3.6E1,3E0,1E0,2.329478E2,8E0,5.4191327E2,1.1419879E2,1.2126982E3,1.5E1,1.9E1,7E0,5.4191327E2,1.84478E2,-4.9080998E-2,7.0188604E-2,-4.1119024E-2,8.293845E-2,-5.1989168E-2,2.713871E-2,6.0026813E-2,-4.2522527E-2,7.210013E-2,5.779037E-4,8.273714E-2,6.61067E-2,-3.0209323E-2,7.6523125E-2,-1.0604972E-2,6.696978E-2],"split_indices":[1,0,0,1,5,2,1,2,2,2,0,0,1,2,2,0,0,0,0,0,0,0,0,0,0,0,0,0,0,0,0],"split_type":[0,0,0,0,0,0,0,0,0,0,0,0,0,0,0,0,0,0,0,0,0,0,0,0,0,0,0,0,0,0,0],"sum_hessian":[4.559134E2,2.5841147E2,1.9750194E2,2.8574198E1,2.2983727E2,1.5064914E2,4.6852806E1,1.0991761E1,1.7582438E1,2.2280446E2,7.032807E0,4.2050007E1,1.0859913E2,2.5145409E1,2.1707396E1,8.011084E0,2.980678E0,2.6379597E0,1.4944477E1,2.2073158E2,2.0728683E0,3.4163036E0,3.616503E0,2.7063606E1,1.4986402E1,2.5321108E1,8.327802E1,2.3377033E1,1.7683766E0,2.8600543E0,1.8847342E1],"tree_param":{"num_deleted":"0","num_feature":"8","num_nodes":"31","size_leaf_vector":"1"}},{"base_weights":[-1.2815405E-2,3.7838656E-1,-4.5301163E-1,-2.3724261E-1,5.179667E-1,-5.159513E-1,1.8451127E-1,2.1384744E-1,-4.187682E-1,5.839217E-1,7.65243E-2,-5.6812823E-2,-3.0950904E-1,-3.278462E-1,4.881518E-1,-4.947073E-2,5.311234E-2,-6.819141E-4,-5.8929987E-2,5.9605815E-2,2.2114815E-2,-1.8326456E-2,6.1206676E-2,1.6393967E-2,-5.7675153E-2,-5.3626414E-2,-1.0701237E-3,6.272521E-2,-4.4142734E-2],"categories":[],"categories_nodes":[],"categories_segments":[],"categories_sizes":[],"default_left":[0,0,0,0,0,0,0,0,0,0,0,0,0,0,0,0,0,0,0,0,0,0,0,0,0,0,0,0,0],"id":45,"left_children":[1,3,5,7,9,11,13,15,17,19,21,-1,23,25,27,-1,-1,-1,-1,-1,-1,-1,-1,-1,-1,-1,-1,-1,-1],"loss_changes":[1.1962844E2,3.1730236E1,1.3210609E1,5.7124767E0,8.694565E0,3.0314178E0,4.8437643E0,4.841216E0,3.459526E0,1.0172653E0,5.7006087E0,0E0,7.9731927E0,7.7429855E-1,2.7731519E0,0E0,0E0,0E0,0E0,0E0,0E0,0E0,0E0,0E0,0E0,0E0,0E0,0E0,0E0],"parents":[2147483647,0,0,1,1,2,2,3,3,4,4,5,5,6,6,7,7,8,8,9,9,10,10,12,12,13,13,14,14],"right_children":[2,4,6,8,10,12,14,16,18,20,22,-1,24,26,28,-1,-1,-1,-1,-1,-1,-1,-1,-1,-1,-1,-1,-1,-1],"split_conditions":[1.0628855E2,6.7E1,1.49E2,5.6248314E1,3E0,8.3E1,-2.2222222E-1,2.9E1,8.2E1,6.060606E-3,1.26E2,-5.6812823E-2,2E0,-3.2374102E-1,2.661E2,-4.947073E-2,5.311234E-2,-6.819141E-4,-5.8929987E-2,5.9605815E-2,2.2114815E-2,-1.8326456E-2,6.1206676E-2,1.6393967E-2,-5.7675153E-2,-5.3626414E-2,-1.0701237E-3,6.272521E-2,-4.4142734E-2],"split_indices":[2,0,0,2,1,0,6,0,3,6,0,0,1,6,2,0,0,0,0,0,0,0,0,0,0,0,0,0,0],"split_type":[0,0,0,0,0,0,0,0,0,0,0,0,0,0,0,0,0,0,0,0,0,0,0,0,0,0,0,0,0],"sum_hessian":[6.926883E2,3.6682852E2,3.2585974E2,6.766905E1,2.9915945E2,2.9675336E2,2.9106386E1,1.936617E1,4.8302883E1,2.5999185E2,3.916762E1,2.3548424E2,6.1269127E1,1.0801096E1,1.830529E1,5.8167386E0,1.3549433E1,1.4446008E1,3.3856876E1,2.5095325E2,9.038601E0,2.681675E1,1.235087E1,2.224546E1,3.9023666E1,6.1008754E0,4.70022E0,1.6205555E1,2.0997362E0],"tree_param":{"num_deleted":"0","num_feature":"8","num_nodes":"29","size_leaf_vector":"1"}},{"base_weights":[8.792031E-3,-4.432073E-1,1.3381423E-1,4.546419E-1,-5.2863127E-1,2.2047672E-1,-4.2712402E-1,-5.692414E-3,5.235663E-1,-7.599467E-2,-5.426001E-1,2.904218E-1,-2.0740862E-1,-5.19342E-1,1.4112404E-1,1.0287459E-2,5.687311E-2,-4.522864E-2,3.318062E-2,-5.485154E-2,6.037119E-3,3.340817E-2,-2.0469597E-2,-5.976913E-2,1.0997984E-2,2.9818952E-2,-5.4543037E-2,5.1533293E-2,-2.8826479E-2],"categories":[],"categories_nodes":[],"categories_segments":[],"categories_sizes":[],"default_left":[0,0,0,0,0,0,0,0,0,0,0,0,0,0,0,0,0,0,0,0,0,0,0,0,0,0,0,0,0],"id":46,"left_children":[1,3,5,7,9,11,13,-1,15,17,19,21,23,25,27,-1,-1,-1,-1,-1,-1,-1,-1,-1,-1,-1,-1,-1,-1],"loss_changes":[4.3608227E1,1.3064629E1,2.9477207E1,5.609491E-1,9.270477E-1,1.5749029E1,4.3297815E0,0E0,1.9559264E-1,1.0320343E0,5.624008E-1,9.817017E0,9.261281E0,1.6577206E0,2.097235E0,0E0,0E0,0E0,0E0,0E0,0E0,0E0,0E0,0E0,0E0,0E0,0E0,0E0,0E0],"parents":[2147483647,0,0,1,1,2,2,3,3,4,4,5,5,6,6,8,8,9,9,10,10,11,11,12,12,13,13,14,14],"right_children":[2,4,6,8,10,12,14,-1,16,18,20,22,24,26,28,-1,-1,-1,-1,-1,-1,-1,-1,-1,-1,-1,-1,-1,-1],"split_conditions":[6.399E1,3.8E1,7E0,2E0,5.2E1,1.28E2,5.8E1,-5.692414E-3,2.888889E1,1.0584E2,5E0,1E0,1.0337681E2,9.640769E1,2.899909E2,1.0287459E-2,5.687311E-2,-4.522864E-2,3.318062E-2,-5.485154E-2,6.037119E-3,3.340817E-2,-2.0469597E-2,-5.976913E-2,1.0997984E-2,2.9818952E-2,-5.4543037E-2,5.1533293E-2,-2.8826479E-2],"split_indices":[2,0,1,1,0,0,0,0,2,4,1,5,2,2,2,0,0,0,0,0,0,0,0,0,0,0,0,0,0],"split_type":[0,0,0,0,0,0,0,0,0,0,0,0,0,0,0,0,0,0,0,0,0,0,0,0,0,0,0,0,0],"sum_hessian":[7.696416E2,1.662054E2,6.0343616E2,1.406395E1,1.5214145E2,5.2320953E2,8.0226616E1,1.6905525E0,1.2373397E1,4.747481E0,1.4739397E2,4.4997482E2,7.323473E1,6.9098976E1,1.112764E1,1.51738E0,1.0856017E1,2.4123955E0,2.3350856E0,1.4605148E2,1.3424945E0,4.1380997E2,3.6164852E1,3.2449474E1,4.078526E1,1.8143023E0,6.7284676E1,5.838916E0,5.2887235E0],"tree_param":{"num_deleted":"0","num_feature":"8","num_nodes":"29","size_leaf_vector":"1"}},{"base_weights":[4.888766E-3,-3.9148608E-1,5.106964E-1,1.7762092E-1,-5.167653E-1,6.660049E-1,2.4796416E-1,-2.6039585E-1,4.3119258E-1,1.921596E-2,-5.2161497E-1,4.1837293E-1,6.927044E-1,-1.6358127E-1,5.307576E-1,-5.054406E-2,4.448539E-2,-5.379831E-3,7.562386E-2,-2.864168E-2,-5.265181E-2,7.2615184E-2,-2.2186393E-2,8.099105E-2,6.395417E-2,-4.2765982E-2,4.396415E-2,5.8759898E-2,-4.6969983E-3],"categories":[],"categories_nodes":[],"categories_segments":[],"categories_sizes":[],"default_left":[0,0,0,0,0,0,0,0,0,0,0,0,0,0,0,0,0,0,0,0,0,0,0,0,0,0,0,0,0],"id":47,"left_children":[1,3,5,7,9,11,13,15,17,-1,19,21,23,25,27,-1,-1,-1,-1,-1,-1,-1,-1,-1,-1,-1,-1,-1,-1],"loss_changes":[8.6911995E1,1.7420437E1,7.606247E0,5.065299E0,7.8595734E-1,4.9766922E-1,8.507058E0,3.158255E0,4.552501E0,0E0,7.7949524E-2,2.9428773E0,1.4242935E-1,5.003816E0,1.4435587E0,0E0,0E0,0E0,0E0,0E0,0E0,0E0,0E0,0E0,0E0,0E0,0E0,0E0,0E0],"parents":[2147483647,0,0,1,1,2,2,3,3,4,4,5,5,6,6,7,7,8,8,10,10,11,11,12,12,13,13,14,14],"right_children":[2,4,6,8,10,12,14,16,18,-1,20,22,24,26,28,-1,-1,-1,-1,-1,-1,-1,-1,-1,-1,-1,-1,-1,-1],"split_conditions":[5E0,1.5E1,2.5E1,3E0,-9.508197E-1,1.6399329E2,2.5982816E2,5.7642285E2,1.6841379E2,1.921596E-2,1.8E1,1.7E1,7E0,8E0,9.1E1,-5.054406E-2,4.448539E-2,-5.379831E-3,7.562386E-2,-2.864168E-2,-5.265181E-2,7.2615184E-2,-2.2186393E-2,8.099105E-2,6.395417E-2,-4.2765982E-2,4.396415E-2,5.8759898E-2,-4.6969983E-3],"split_indices":[1,0,0,1,6,2,2,2,2,0,0,0,1,1,0,0,0,0,0,0,0,0,0,0,0,0,0,0,0],"split_type":[0,0,0,0,0,0,0,0,0,0,0,0,0,0,0,0,0,0,0,0,0,0,0,0,0,0,0,0,0],"sum_hessian":[4.3150195E2,2.4204782E2,1.8945413E2,4.359421E1,1.984536E2,1.1810436E2,7.134977E1,1.5973999E1,2.7620214E1,1.0859406E0,1.9736766E2,1.3116979E1,1.0498738E2,2.9231346E1,4.2118423E1,1.2065173E1,3.9088252E0,1.1418109E1,1.6202105E1,5.243794E0,1.9212387E2,8.767848E0,4.3491306E0,2.8318935E1,7.666845E1,2.0533321E1,8.698025E0,3.8330116E1,3.788304E0],"tree_param":{"num_deleted":"0","num_feature":"8","num_nodes":"29","size_leaf_vector":"1"}},{"base_weights":[-1.380307E-2,3.636301E-1,-4.4793543E-1,-4.234009E-1,4.6843824E-1,-5.3934306E-1,-2.7612861E-2,1.8247452E-1,-5.107647E-1,5.463161E-1,4.960293E-3,-3.7453946E-1,-5.6478202E-2,4.0391672E-1,-4.5602518E-1,-3.7446856E-2,5.208E-2,-2.2502238E-2,-5.6444436E-2,2.3494061E-2,5.865119E-2,-2.0891035E-2,5.362718E-2,-5.519345E-2,2.0247798E-2,7.577069E-2,-4.4502914E-2,-5.748404E-2,-3.0851262E-3],"categories":[],"categories_nodes":[],"categories_segments":[],"categories_sizes":[],"default_left":[0,0,0,0,0,0,0,0,0,0,0,0,0,0,0,0,0,0,0,0,0,0,0,0,0,0,0,0,0],"id":48,"left_children":[1,3,5,7,9,11,13,15,17,19,21,23,-1,25,27,-1,-1,-1,-1,-1,-1,-1,-1,-1,-1,-1,-1,-1,-1],"loss_changes":[1.0739926E2,2.9121738E1,1.1696278E1,2.3021545E0,1.1183334E1,8.37883E-1,1.044486E1,1.3248352E0,4.3646908E-1,3.1829147E0,5.2927065E0,3.841783E0,0E0,8.801128E0,1.4129577E0,0E0,0E0,0E0,0E0,0E0,0E0,0E0,0E0,0E0,0E0,0E0,0E0,0E0,0E0],"parents":[2147483647,0,0,1,1,2,2,3,3,4,4,5,5,6,6,7,7,8,8,9,9,10,10,11,11,13,13,14,14],"right_children":[2,4,6,8,10,12,14,16,18,20,22,24,-1,26,28,-1,-1,-1,-1,-1,-1,-1,-1,-1,-1,-1,-1,-1,-1],"split_conditions":[1.074769E2,5.2E1,1.13E2,3.986727E1,3E0,1.3706842E2,2E0,2.8E1,5.6248314E1,7.6E1,1.26E2,8.2E1,-5.6478202E-2,2.1461845E2,1.74E2,-3.7446856E-2,5.208E-2,-2.2502238E-2,-5.6444436E-2,2.3494061E-2,5.865119E-2,-2.0891035E-2,5.362718E-2,-5.519345E-2,2.0247798E-2,7.577069E-2,-4.4502914E-2,-5.748404E-2,-3.0851262E-3],"split_indices":[2,0,0,2,1,2,1,0,2,0,0,0,0,2,0,0,0,0,0,0,0,0,0,0,0,0,0,0,0],"split_type":[0,0,0,0,0,0,0,0,0,0,0,0,0,0,0,0,0,0,0,0,0,0,0,0,0,0,0,0,0],"sum_hessian":[6.5345514E2,3.4964093E2,3.038142E2,4.0732258E1,3.089087E2,2.4931294E2,5.4501274E1,4.9959865E0,3.573627E1,2.64317E2,4.4591705E1,3.544028E1,2.1387267E2,2.718034E1,2.7320936E1,1.8476315E0,3.1483548E0,6.472807E0,2.9263464E1,3.100247E1,2.3331451E2,3.2226334E1,1.2365373E1,2.7139984E1,8.300296E0,1.9260983E1,7.9193583E0,2.1078516E1,6.2424197E0],"tree_param":{"num_deleted":"0",